tree
version=v3
num_class=1
num_tree_per_iteration=1
label_index=0
max_feature_idx=13
objective=binary sigmoid:1
feature_names=Column_0 Column_1 Column_2 Column_3 Column_4 Column_5 Column_6 Column_7 Column_8 Column_9 Column_10 Column_11 Column_12 Column_13
feature_infos=[0:73] [0:8] [19302:1226583] [0:15] [0:15] [0:6] [0:14] [0:5] [0:4] [0:1] [0:122] [0:90] [1:95] [0:40]
tree_sizes=3273 3302 3295 3307 3319 3314 3319 3316 3317 3315 3326 3334 3332 3329 3332 3336 3337 3353 3340 3352 3357 3356 3349 3354 3344 3354 3345

Tree=0
num_leaves=31
num_cat=0
split_feature=7 4 10 10 4 7 4 0 12 4 10 3 2 2 4 0 0 6 1 0 0 2 4 12 0 12 4 6 0 6
split_gain=369.148 155.307 126.549 68.1088 34.4992 33.1093 21.9516 18.1373 20.0363 14.19 12.7085 13.2108 9.80611 15.5583 9.13894 6.68882 5.67234 5.66619 4.99602 7.28966 4.90006 4.45563 4.32099 8.96272 9.04328 3.53698 3.04037 4.71785 2.97395 2.75644
threshold=1.0000000180025095e-35 11.500000000000002 95.500000000000014 79.500000000000014 6.5000000000000009 4.5000000000000009 9.5000000000000018 15.500000000000002 31.500000000000004 12.500000000000002 79.500000000000014 9.5000000000000018 177128.00000000003 220386.00000000003 8.5000000000000018 33.500000000000007 28.500000000000004 4.5000000000000009 4.5000000000000009 28.500000000000004 31.500000000000004 119125.50000000001 11.500000000000002 43.500000000000007 14.500000000000002 45.500000000000007 8.5000000000000018 4.5000000000000009 28.500000000000004 4.5000000000000009
decision_type=2 2 2 2 2 2 2 2 2 2 2 2 2 2 2 2 2 2 2 2 2 2 2 2 2 2 2 2 2 2
left_child=1 3 5 4 25 9 -7 -6 -9 22 11 21 18 17 16 -13 -15 -14 19 -10 -20 -3 -2 -24 -25 -1 27 -21 -11 -23
right_child=2 10 -4 -5 7 6 -8 8 12 28 -12 15 13 14 -16 -17 -18 -19 20 26 -22 29 23 24 -26 -27 -28 -29 -30 -31
leaf_value=-1.2303572537005454 -1.2245911917641463 -0.97843552853255233 -0.70323842658273372 -0.72049989355091237 -1.1439135244762342 -1.1444657489096846 -0.89434752515899663 -1.1924777189379667 -1.0786109246817814 -1.1380116258437318 -0.7169590798138501 -0.74783054958386186 -0.9393143718828233 -1.1873814763092665 -0.95371333024864424 -0.88160691858724582 -1.0243017121908555 -0.79879297587086517 -1.0243017121908555 -1.0822714720923219 -1.1766009630562464 -0.82914559740944827 -1.2185251812624351 -1.211588628795593 -1.0028974931503141 -1.1268635950934498 -0.91345843501662294 -0.93868483602868968 -1.0243017121908555 -0.91183886638462075
leaf_weight=12.52089560031891 159.96845722198486 6.540766358375552 5.2326130867004386 5.7932502031326285 15.884718298912047 10.652105212211607 5.2326130867004386 6.5407663583755484 12.52089560031891 5.9801292419433576 7.2882825136184684 11.212742328643801 6.3538873195648211 3.9244598150253314 8.7833148241043073 5.6063711643218985 4.6719759702682495 5.2326130867004395 3.7375807762145978 4.4850969314575178 4.8588550090789795 6.353887319564822 20.182936191558841 3.7375807762145978 4.6719759702682495 4.4850969314575186 5.2326130867004386 4.6719759702682495 3.7375807762145996 11.025863289833067
leaf_count=67 856 35 28 31 85 57 28 35 67 32 39 60 34 21 47 30 25 28 20 24 26 34 108 20 25 24 28 25 20 59
internal_value=-1.10523 -0.988543 -1.18912 -1.0542 -1.07281 -1.20099 -1.06207 -1.04732 -1.02571 -1.21212 -0.838576 -0.860334 -1.00879 -0.965613 -1.02545 -0.792423 -1.09875 -0.875853 -1.04402 -1.02282 -1.11038 -0.908083 -1.21819 -1.18239 -1.09565 -1.20306 -0.974266 -1.00901 -1.09428 -0.881607
internal_weight=0 157.726 219.396 109.698 103.905 214.163 15.8847 86.8988 71.014 198.279 48.0279 40.7396 64.4733 28.9663 17.3798 16.8191 8.59644 11.5865 35.507 26.9106 8.59644 23.9205 188.561 28.5925 8.40956 17.006 14.3897 9.15707 9.71771 17.3798
internal_count=2018 844 1174 587 556 1146 85 465 380 1061 257 218 345 155 93 90 46 62 190 144 46 128 1009 153 45 91 77 49 52 93
is_linear=0
shrinkage=1


Tree=1
num_leaves=31
num_cat=0
split_feature=7 4 10 10 7 4 4 0 12 4 0 3 10 2 2 4 12 2 4 12 0 2 0 0 12 0 12 0 2 6
split_gain=294.054 102.108 92.9452 40.8968 29.1476 26.3485 17.2318 14.3062 16.1535 12.8856 11.6095 9.4157 9.59795 8.31781 10.6371 9.27706 5.88671 4.15814 4.12293 7.9856 7.33394 3.74437 3.59488 3.36869 3.28268 3.19876 3.95755 2.59874 3.17058 3.54687
threshold=1.0000000180025095e-35 10.500000000000002 95.500000000000014 79.500000000000014 4.5000000000000009 6.5000000000000009 8.5000000000000018 15.500000000000002 31.500000000000004 12.500000000000002 21.500000000000004 9.5000000000000018 79.500000000000014 177128.00000000003 224299.50000000003 8.5000000000000018 41.500000000000007 135506.00000000003 11.500000000000002 43.500000000000007 14.500000000000002 200546.00000000003 38.500000000000007 29.500000000000004 45.500000000000007 18.500000000000004 51.500000000000007 42.500000000000007 117646.00000000001 3.5000000000000004
decision_type=2 2 2 2 2 2 2 2 2 2 2 2 2 2 2 2 2 2 2 2 2 2 2 2 2 2 2 2 2 2
left_child=1 3 4 5 9 24 -6 -7 -9 18 -8 12 16 27 21 23 17 -3 -2 -20 -21 -15 -13 -16 -1 -18 -27 28 29 -10
right_child=2 11 -4 -5 6 7 10 8 13 -11 -12 22 -14 14 15 -17 25 -19 19 20 -22 -23 -24 -25 -26 26 -28 -29 -30 -31
leaf_value=-0.12068950312534599 -0.11474685142806561 0.015692732870478544 0.30202847201359923 0.28932472176764218 -0.068360829458781289 -0.043171001137080035 0.024355008425713004 -0.095354941109159569 0.074307173125684953 0.0097271054417452339 0.26060852740991447 0.268849883384428 0.30492321138495843 0.14642878287086256 -0.078308661423734521 0.13945826629953328 0.12186807344133198 0.13634892450539376 -0.10853747512757833 -0.10148968825033032 0.087409810949259245 0.25957975670807965 0.16691295192235245 0.05115700608588717 -0.019696249562929969 0.26542631849445808 0.15246118967094741 -0.030921932006982396 0.086630739355604544 -0.026387847385905494
leaf_weight=11.724272981286051 150.26368153095245 3.9287641495466223 6.2011870741844168 6.1647267937660208 7.876674190163615 14.658460617065428 4.3264712095260602 5.7156081199645987 6.6931793689727801 9.7691339850425702 4.0057365596294403 19.730508849024776 4.6283843368291846 7.6433969736099261 3.7916684746742266 8.6334344595670682 4.9939321428537395 10.463196188211439 19.021244645118717 3.5357302427291852 4.9087133258581161 4.7371329516172409 4.1951387524604788 4.2766635715961456 4.4362206459045401 7.1477568298578245 5.4780596494674683 3.8317922949790946 16.199398025870323 7.3278736174106598
leaf_count=67 856 20 28 28 43 80 22 32 35 52 20 91 21 37 21 43 25 51 108 20 25 23 20 22 24 35 27 20 84 38
internal_value=0 0.0986323 -0.0793573 0.0393731 -0.0909673 0.0239131 0.0376858 0.0465314 0.0656294 -0.102089 0.137935 0.202183 0.170321 0.0802034 0.11948 0.0674099 0.15086 0.103412 -0.108235 -0.0726102 0.00831666 0.189723 0.250976 -0.00968468 -0.0929658 0.189617 0.216413 0.0466596 0.0564965 0.0216806
internal_weight=0 166.4 209.909 105.834 203.707 99.6691 16.2089 83.5086 68.8501 187.499 8.33221 60.5657 36.6401 63.1345 29.0823 16.7018 32.0117 14.392 177.729 27.4657 8.44444 12.3805 23.9256 8.06833 16.1605 17.6197 12.6258 34.0522 30.2205 14.0211
internal_count=2018 844 1174 554 1146 526 85 435 355 1061 42 290 179 323 146 86 158 71 1009 153 45 60 111 43 91 87 62 177 157 73
is_linear=0
shrinkage=0.1


Tree=2
num_leaves=31
num_cat=0
split_feature=7 10 4 10 7 4 4 0 12 4 12 0 0 2 6 2 0 6 0 2 3 0 2 12 6 4 12 0 6 0
split_gain=238.947 74.1979 73.3521 32.3434 24.0789 21.8309 14.9428 10.3815 11.988 9.81159 15.3735 10.0824 7.8673 6.30512 5.13601 8.94522 5.84698 7.59369 5.46756 5.21843 4.679 4.46014 4.28484 3.64191 4.18888 3.36415 3.01822 2.7923 3.69942 2.098
threshold=1.0000000180025095e-35 74.000000000000014 11.500000000000002 68.500000000000014 4.5000000000000009 6.5000000000000009 8.5000000000000018 15.500000000000002 31.500000000000004 11.500000000000002 43.500000000000007 14.500000000000002 21.500000000000004 86432.500000000015 2.5000000000000004 150561.50000000003 34.500000000000007 6.5000000000000009 28.500000000000004 82338.000000000015 14.500000000000002 32.500000000000007 117646.00000000001 41.500000000000007 10.500000000000002 8.5000000000000018 45.500000000000007 9.5000000000000018 6.5000000000000009 18.500000000000004
decision_type=2 2 2 2 2 2 2 2 2 2 2 2 2 2 2 2 2 2 2 2 2 2 2 2 2 2 2 2 2 2
left_child=2 4 3 5 9 26 -6 27 -9 -2 21 -12 -8 -4 18 19 17 -17 20 -16 -10 -11 -21 24 -15 -19 -1 -7 -29 -25
right_child=1 -3 13 -5 6 7 12 8 14 10 11 -13 -14 23 15 16 -18 25 -20 22 -22 -23 -24 29 -26 -27 -28 28 -30 -31
leaf_value=-0.11648085476031503 -0.1105061531397535 0.22051785023059589 0.088568299647309778 0.23094096422310828 -0.075827631766362466 -0.10513540129642943 0.021666233736530996 -0.078027760897133272 -0.05489514163575019 -0.11384261999813315 -0.078863833174273507 0.11894425721897978 0.21070867684171868 0.18415605854037637 0.10277667919952192 0.090451345166089936 0.051922343882352187 0.15782359885536651 0.090520391343877682 -0.075611136940853904 0.061346561650273329 0.005488960280616296 0.047799570996528831 0.1577241539557678 0.082848643025186935 0.27382801656661898 -0.01791706736553925 -0.049346671608795321 0.07037521865523659 0.22470304446255845
leaf_weight=10.620160847902296 140.16534841060638 8.1339821815490705 7.0763420760631552 8.1384164541959745 7.4200586378574398 3.9408010542392722 4.3743514716625196 5.9860324263572684 8.4443686753511447 20.82113437354565 4.0796331763267499 6.9948907196521759 4.4317852705717087 15.439207151532175 7.1300891935825375 9.3926252126693779 7.6795198470354071 5.0136837959289533 9.5336695313453657 5.00492215156555 5.8699045330286017 3.686709150671958 6.4250438958406448 5.8017777353525188 5.5481500923633567 4.9860664010047913 4.3915225267410269 7.3708676248788816 3.9717475473880768 24.113923355937004
leaf_count=65 852 36 32 35 42 22 22 35 43 122 24 35 20 69 37 45 37 25 47 26 28 21 32 26 25 23 24 41 22 105
internal_value=0 -0.075306 0.0854513 0.0388422 -0.0878402 0.02406 0.0287157 0.0425384 0.0577594 -0.0986014 -0.0517062 0.0460757 0.116804 0.177014 0.0694582 0.0891132 0.125773 0.155019 0.0318491 0.0356407 -0.0072275 -0.0958916 -0.00623917 0.18931 0.157375 0.215666 -0.087647 -0.0326192 -0.00742467 0.211713
internal_weight=0 200.108 171.879 113.899 191.974 105.761 16.2262 90.7493 75.4659 175.748 35.5824 11.0745 8.80614 57.9794 69.4799 45.632 27.0719 19.3924 23.8479 18.5601 14.3143 24.5078 11.43 50.9031 20.9874 9.99975 15.0117 15.2834 11.3426 29.9157
internal_count=2018 1174 844 587 1138 552 84 463 378 1054 202 59 42 257 343 225 130 93 118 95 71 143 58 225 94 48 89 85 63 131
is_linear=0
shrinkage=0.1


Tree=3
num_leaves=31
num_cat=0
split_feature=7 10 4 10 7 4 4 4 0 12 11 10 2 3 0 2 2 4 0 4 12 12 12 0 1 0 0 0 2 0
split_gain=196.382 61.1999 54.9361 23.2119 22.7871 18.2117 11.4077 10.4659 9.00449 10.5181 7.20216 9.49203 7.41172 6.63921 5.73501 5.1145 7.47467 6.3052 3.61725 4.32933 4.3018 2.89706 2.74436 2.55464 2.14541 3.96683 3.28241 2.11645 2.0518 2.03371
threshold=1.0000000180025095e-35 95.500000000000014 10.500000000000002 79.500000000000014 4.5000000000000009 6.5000000000000009 12.500000000000002 8.5000000000000018 15.500000000000002 31.500000000000004 49.500000000000007 51.500000000000007 86432.500000000015 9.5000000000000018 21.500000000000004 177128.00000000003 224299.50000000003 8.5000000000000018 16.500000000000004 11.500000000000002 43.500000000000007 45.500000000000007 43.500000000000007 29.500000000000004 4.5000000000000009 31.500000000000004 33.500000000000007 28.500000000000004 200546.00000000003 9.5000000000000018
decision_type=2 2 2 2 2 2 2 2 2 2 2 2 2 2 2 2 2 2 2 2 2 2 2 2 2 2 2 2 2 2
left_child=2 4 3 5 6 21 18 -6 29 -10 11 12 -4 -14 -9 24 28 23 -2 -20 -21 -1 -15 -18 25 -11 -26 -8 -17 -7
right_child=1 -3 10 -5 7 8 27 14 9 15 -12 -13 13 22 -16 16 17 -19 19 20 -22 -23 -24 -25 26 -27 -28 -29 -30 -31
leaf_value=-0.11365451166044765 -0.113546290102297 0.21980462129263151 0.012441233593222207 0.20773949383637436 -0.059437001410375015 -0.10057730890526594 -0.026732222612861241 0.019303077398826227 -0.086927012145574675 0.013280281950889547 0.24081020458199345 0.21637533960746463 0.099819140483335206 0.13242447234878188 0.17796338842916581 0.11487538170063816 -0.077245430530509376 0.10334287727538681 -0.094963738835694561 -0.074870885093553705 0.045359344168681079 -0.016285003944766365 0.21653088546723037 0.034293138264528018 0.056539915351632469 0.090195266073866368 -0.067328764576261843 0.068716794183172211 0.19437081558577976 -0.014353429956545283
leaf_weight=10.26593531668186 88.565769731998444 6.9431725144386283 6.1254154294729224 6.9303021430969229 7.311682507395747 3.7190303504467002 5.7483730614185315 4.4165181815624219 5.182811737060546 14.509291246533396 7.1220556050539008 11.474535927176474 26.997069269418716 6.6859631836414328 4.7055530548095703 8.2519385218620318 3.7408140152692813 9.4895919114351255 55.966504096984863 8.0535776764154416 4.7200825363397589 4.3507168292999259 9.2426439821720106 4.5523108541965485 4.069083020091055 12.466767236590384 4.5108312219381332 3.8986383229494095 5.3528675884008399 10.343451470136641
leaf_count=67 573 28 28 28 43 22 32 22 32 73 30 47 119 28 20 37 21 43 363 51 22 24 38 22 20 60 24 20 23 58
internal_value=0 -0.0716205 0.0750604 0.0307117 -0.0826541 0.0185411 -0.0937135 0.0297001 0.0360449 0.050317 0.14569 0.134497 0.115344 0.130028 0.101147 0.0609426 0.0903614 0.0476774 -0.100187 -0.0829743 -0.0304438 -0.084672 0.181228 -0.016019 0.0349727 0.0488259 -0.0085832 0.0118415 0.146153 -0.0371566
internal_weight=0 190.33 175.383 107.736 183.387 100.805 166.953 16.4338 86.1888 72.1263 67.6477 60.5256 49.0511 42.9257 9.12207 66.9435 31.3875 17.7827 157.306 68.7402 12.7737 14.6167 15.9286 8.29312 35.556 26.9761 8.57991 9.64701 13.6048 14.0625
internal_count=2018 1174 844 554 1146 526 1061 85 435 355 290 260 213 185 42 323 146 86 1009 436 73 91 66 43 177 133 44 52 60 80
is_linear=0
shrinkage=0.1


Tree=4
num_leaves=31
num_cat=0
split_feature=7 10 4 10 7 4 4 4 12 0 0 12 0 0 0 6 0 2 0 2 10 11 2 3 4 0 0 2 2 12
split_gain=162.923 51.5498 42.7036 20.2727 18.7847 16.1707 9.71263 8.85317 12.8054 7.19542 6.84882 6.64353 4.59685 4.37901 4.33939 4.37893 6.9365 8.66273 6.37461 4.70742 4.28147 5.56142 6.73552 4.06946 3.96562 5.03336 3.89341 2.59985 3.14081 2.49839
threshold=1.0000000180025095e-35 74.000000000000014 11.500000000000002 68.500000000000014 4.5000000000000009 4.5000000000000009 8.5000000000000018 11.500000000000002 43.500000000000007 19.500000000000004 14.500000000000002 31.500000000000004 34.500000000000007 21.500000000000004 42.500000000000007 2.5000000000000004 25.500000000000004 150561.50000000003 28.500000000000004 220386.00000000003 51.500000000000007 49.500000000000007 86432.500000000015 14.500000000000002 13.500000000000002 36.500000000000007 33.500000000000007 302504.00000000006 123049.50000000001 41.500000000000007
decision_type=2 2 2 2 2 2 2 2 2 2 2 2 2 2 2 2 2 2 2 2 2 2 2 2 2 2 2 2 2 2
left_child=2 4 3 5 7 -1 -6 -2 12 27 -10 -11 -9 -8 15 18 -17 26 23 -19 21 22 -4 -13 25 -24 -18 28 -7 -30
right_child=1 -3 20 -5 6 9 13 8 10 11 -12 14 -14 -15 -16 16 17 19 -20 -21 -22 -23 24 -25 -26 -27 -28 -29 29 -31
leaf_value=-0.1118044738996557 -0.10316703401257737 0.17183596010353627 0.0011126351914183452 0.17886346548400056 -0.067784936720517983 -0.047623025452973422 0.017219568817083027 -0.10786365009680861 -0.069029741510702999 -0.054578146003005285 0.097944711325624823 -0.074181426619631646 0.019676050664209278 0.15441594608155074 -0.019963181089404966 0.15853705617077296 -0.089279875973146391 0.15157678695983226 0.088841142614757895 0.042514384933169266 0.19043299270770375 0.20486503336126669 0.12385877245449861 0.054992901495799718 0.18349993345674429 0.014087839138181027 0.03765424933246312 -0.076041850197641869 -0.011415770194877562 0.067081610636368652
leaf_weight=8.7046282738447172 122.61331951618195 8.5240538567304593 5.1631171703338614 8.5484186857938749 6.8741964697837856 8.2298022955656105 4.4537229835987073 18.925074800848964 3.6711409687995893 5.7480099201202384 7.4244884699583054 6.4359886795282382 3.3220499306917182 4.8706531524658203 6.440252259373664 9.9292689710855466 3.9698479026556033 9.4207842350006121 9.2905821204185468 6.8245485872030249 10.943812519311903 6.9193344712257376 25.586501285433773 3.9268950074911118 8.4034943878650648 4.9921975284814826 6.1752804517745972 5.0620383471250525 8.0292623192071932 8.1908199638128263
leaf_count=58 852 36 23 35 42 45 22 124 24 37 35 34 19 20 32 46 20 42 43 32 44 28 107 18 34 21 31 28 44 42
internal_value=0 -0.068211 0.0667903 0.0307041 -0.0800967 0.0187982 0.0223989 -0.0907425 -0.045053 0.0304375 0.0426989 0.048297 -0.0888188 0.0888851 0.0577713 0.0667154 0.0872905 0.0604844 0.0286925 0.10576 0.133672 0.121508 0.108442 -0.0252323 0.122658 0.105938 -0.0120158 -0.0108113 0.00269388 0.0282239
internal_weight=0 180.679 176.935 114.926 172.155 106.378 16.1986 155.956 33.3428 97.6734 11.0956 68.1615 22.2471 9.32438 62.4134 55.9732 36.3197 26.3905 19.6535 16.2453 62.0085 51.0646 44.1453 10.3629 38.9822 30.5787 10.1451 29.5119 24.4499 16.2201
internal_count=2018 1174 844 587 1138 552 84 1054 202 494 59 335 143 42 298 266 171 125 95 74 257 213 185 52 162 128 51 159 131 86
is_linear=0
shrinkage=0.1


Tree=5
num_leaves=31
num_cat=0
split_feature=7 10 4 4 7 10 4 0 12 4 12 4 10 11 3 0 0 6 0 12 6 2 0 0 3 0 3 0 2 2
split_gain=135.899 43.6691 33.9754 20.0594 16.6904 15.3929 13.3574 6.69921 5.94958 5.83065 5.47461 8.03846 4.74307 6.20682 5.52537 3.98535 3.44324 3.647 6.55338 6.63194 10.0458 4.88694 4.23871 3.30438 3.18599 2.71454 5.37088 2.32027 2.31489 1.90652
threshold=1.0000000180025095e-35 95.500000000000014 10.500000000000002 13.500000000000002 4.5000000000000009 79.500000000000014 4.5000000000000009 19.500000000000004 31.500000000000004 11.500000000000002 42.500000000000007 11.500000000000002 51.500000000000007 49.500000000000007 9.5000000000000018 15.500000000000002 42.500000000000007 2.5000000000000004 25.500000000000004 54.500000000000007 3.5000000000000004 150561.50000000003 28.500000000000004 33.500000000000007 14.500000000000002 33.500000000000007 11.500000000000002 33.500000000000007 86432.500000000015 186319.50000000003
decision_type=2 2 2 2 2 2 2 2 2 2 2 2 2 2 2 2 2 2 2 2 2 2 2 2 2 2 2 2 2 2
left_child=2 3 5 4 10 6 -1 -8 -9 29 25 -12 13 14 28 -13 17 22 -19 20 -20 -22 24 -16 -10 -2 -27 -23 -4 -6
right_child=1 -3 12 -5 9 -7 7 8 16 -11 11 15 -14 -15 23 -17 -18 18 19 -21 21 27 -24 -25 -26 26 -28 -29 -30 -31
leaf_value=-0.10851232097978064 -0.10665179299466845 0.18098158215057089 -0.003719233590176885 0.17435670144226209 -0.054099364061783242 0.16858662879056063 -0.016552112580494962 -0.06206658178721644 -0.066696898938684607 0.10550024663771634 -0.089128534270839263 -0.065763430054581989 0.17228028267796627 0.18781607850157556 0.16589039290168162 0.067654732868337064 -0.018120748787266803 0.15101587265257324 0.19835785732435984 -0.056423321265690288 -0.035777306293934358 0.12178145851054918 0.073137319839664525 0.07741508905256303 0.048537246313453325 -0.093953998087165327 0.048371409622642907 0.02515473633124754 0.075539301333851672 0.035725993241640455
leaf_weight=8.1029511541128141 100.7000816911459 6.9227001667022696 4.2369345575571051 3.1537887305021277 7.1803768873214704 6.9395667910575858 26.9856126755476 5.011302798986434 5.9953566938638705 5.0867660641670218 20.039715901017189 3.436571881175043 11.66585026681423 7.4263710081577292 11.680125653743746 6.4243449419736862 6.3884107619523993 9.2410053461790067 5.1181513369083467 4.5691989660263053 5.8102087229490271 5.6591889858245832 9.3311814069747907 6.610314577817916 4.0000865608453751 11.404665917158125 3.4545722752809516 4.4307569414377213 28.287984430789948 3.5218315124511719
leaf_count=58 741 28 20 16 41 28 148 34 33 22 149 23 47 30 47 29 32 41 23 22 30 25 42 27 18 82 23 20 119 20
internal_value=0 -0.0650513 0.0598042 -0.0754113 -0.0802964 0.0245359 0.0146033 0.0253834 0.0426461 0.0173553 -0.090896 -0.0527572 0.11408 0.102422 0.0899424 0.0211579 0.0513134 0.0595042 0.0788354 0.0527672 0.0765043 0.0372805 0.0246675 0.133915 -0.0205812 -0.100764 -0.0608653 0.0793502 0.0652145 -0.0245401
internal_weight=0 171.325 177.491 164.403 161.249 107.583 100.643 92.5405 65.5548 15.789 145.46 29.9006 69.9076 58.2417 50.8154 9.86092 60.5435 54.1551 34.8285 25.5875 21.0183 15.9002 19.3266 18.2904 9.99544 115.559 14.8592 10.0899 32.5249 10.7022
internal_count=2018 1174 844 1146 1130 554 526 468 320 83 1047 201 290 243 213 52 286 254 161 120 98 75 93 74 51 846 105 45 139 61
is_linear=0
shrinkage=0.1


Tree=6
num_leaves=31
num_cat=0
split_feature=7 10 4 4 10 4 7 12 0 12 7 0 0 10 11 2 4 0 0 2 2 1 6 2 4 0 2 12 0 4
split_gain=113.923 37.1776 27.655 15.0769 14.0495 11.9898 10.0614 9.43508 5.04335 4.43689 4.24898 4.00824 3.66154 3.35056 3.73908 4.15425 3.04921 3.8049 2.79534 2.72708 4.44564 2.85789 4.9936 3.27677 2.46531 2.56309 2.32698 2.1779 1.98928 1.83734
threshold=1.0000000180025095e-35 74.000000000000014 11.500000000000002 11.500000000000002 92.500000000000014 4.5000000000000009 4.5000000000000009 43.500000000000007 19.500000000000004 31.500000000000004 4.5000000000000009 34.500000000000007 15.500000000000002 79.500000000000014 49.500000000000007 86432.500000000015 13.500000000000002 36.500000000000007 16.500000000000004 177128.00000000003 194975.50000000003 4.5000000000000009 4.5000000000000009 123049.50000000001 8.5000000000000018 28.500000000000004 150561.50000000003 41.500000000000007 34.500000000000007 8.5000000000000018
decision_type=2 2 2 2 2 2 2 2 2 2 2 2 2 2 2 2 2 2 2 2 2 2 2 2 2 2 2 2 2 2
left_child=2 3 4 10 5 -1 7 11 27 -10 -2 -5 -9 14 15 -4 17 18 -17 21 -21 22 23 -11 25 -22 -24 -7 -23 -12
right_child=1 -3 13 6 -6 8 -8 12 9 19 29 -13 -14 -15 -16 16 -18 -19 -20 20 24 28 26 -25 -26 -27 -28 -29 -30 -31
leaf_value=-0.10545532845312416 -0.096668957161151828 0.14338085059587866 0.0053607473047340148 -0.10129073611142547 0.16989863386242587 -0.035378391114453643 0.10527546703270091 -0.046005611861003409 -0.04750527251330041 0.054986115190330878 -0.062107437950077574 0.019428039952009427 0.074036530051074495 0.16208810395050655 0.16634167663016017 0.036239583267242935 0.15201460783669049 0.0048812942142801366 0.11544731081473716 0.1504660442575225 -0.035549751750400031 0.019666819105372532 0.055855941293293479 -0.042463623514657357 0.085721032552613846 0.055156764752367596 0.14331293232579051 0.018733233610642729 -0.078088637951098799 0.024935319169028133
leaf_weight=7.5334996059536925 106.86846219003201 8.3550343215465528 5.4525804966688147 16.544410571455963 6.2957915961742392 15.367680311203005 5.6592952758073798 3.8514348566532117 5.3723673075437537 6.4086335152387637 6.4955941885709745 3.2988832741975775 7.4677132219076157 9.4904616028070432 6.8823787719011298 5.6084777712821987 8.3926791548728925 5.076815426349639 21.673782095313072 5.4946282953023937 4.8954280018806484 4.8397578597068769 8.0651365071535093 7.4754106849431992 11.169213116168974 8.5665044635534269 4.885026514530181 14.414895579218863 3.6528442054986954 3.869823083281517
leaf_count=58 852 36 24 124 26 87 24 26 37 31 42 19 33 39 28 23 34 21 88 23 25 23 40 35 47 39 21 75 20 18
internal_value=0 -0.0620653 0.05391 -0.0732074 0.0246814 0.0162271 -0.0173871 -0.0396634 0.0253387 0.0398575 -0.0907399 -0.0812216 0.0331912 0.107361 0.0975776 0.0873349 0.098303 0.0843723 0.0991644 0.0470283 0.0691322 0.0281787 0.0441797 0.00251748 0.0509885 0.0221714 0.0888462 -0.00918813 -0.0223798 -0.0296109
internal_weight=0 162.411 177.014 154.056 114.437 108.141 36.8217 31.1624 100.608 70.825 117.234 19.8433 11.3191 62.5772 53.0867 46.2043 40.7518 32.3591 27.2823 65.4526 30.1258 35.3268 26.8342 13.884 24.6311 13.4619 12.9502 29.7826 8.4926 10.3654
internal_count=2018 1174 844 1138 587 561 226 202 503 341 912 143 59 257 218 190 166 132 111 304 134 170 127 66 111 64 61 162 43 60
is_linear=0
shrinkage=0.1


Tree=7
num_leaves=31
num_cat=0
split_feature=7 10 4 4 7 10 4 11 12 4 4 0 0 1 2 12 2 8 12 0 0 3 2 12 0 10 11 3 6 0
split_gain=95.7521 32.2894 22.703 15.5201 13.4795 11.9782 10.2703 5.02587 4.96891 5.95646 3.9506 3.94857 4.54609 4.38756 3.51813 3.35957 4.23406 5.08691 3.89082 4.71363 4.44031 3.38906 3.33483 3.61686 3.08915 3.08483 3.30406 3.52556 2.738 2.73055
threshold=1.0000000180025095e-35 95.500000000000014 11.500000000000002 13.500000000000002 4.5000000000000009 92.500000000000014 4.5000000000000009 25.500000000000004 42.500000000000007 11.500000000000002 8.5000000000000018 18.500000000000004 42.500000000000007 4.5000000000000009 267198.00000000006 42.500000000000007 117646.00000000001 3.5000000000000004 49.500000000000007 27.500000000000004 28.500000000000004 14.500000000000002 123049.50000000001 41.500000000000007 19.500000000000004 79.500000000000014 49.500000000000007 9.5000000000000018 2.5000000000000004 33.500000000000007
decision_type=2 2 2 2 2 2 2 2 2 2 2 2 2 2 2 2 2 2 2 2 2 2 2 2 2 2 2 2 2 2
left_child=2 3 5 4 8 6 -1 11 29 -10 -6 13 15 14 22 16 -13 -18 20 -20 -17 28 -8 -24 -12 26 27 -4 -19 -2
right_child=1 -3 25 -5 10 -7 7 -9 9 -11 24 12 -14 -15 -16 18 17 21 19 -21 -22 -23 23 -25 -26 -27 -28 -29 -30 -31
leaf_value=-0.1025812644247512 -0.10120134797228096 0.15854872363977468 0.05623411958138106 0.14330341504618568 -0.045911512248031701 0.15897736970878573 -0.037101881757190945 0.1308494728962874 -0.081713543805120692 0.015237536085980916 -0.0061476251538236095 -0.052288392703802616 -0.035445324234125983 -0.10739618263389075 -0.071622105908027381 0.041435702399199831 -0.057202605638759868 -0.012903775150542024 0.091391247935412048 -0.050307016615529256 0.14490452879485038 0.12197361241910083 0.0071958689226182346 0.12784583293129878 0.11031686303536746 0.15089892152694517 0.15368996872158883 0.11271318918220373 0.064089867283163224 -0.052936672887493763
leaf_weight=6.9978105872869483 87.405745543539524 6.521536946296691 27.900533482432365 3.3699587136507025 6.4693294465541831 6.0670077353715888 5.400466635823256 4.1212120652198783 17.583818666636944 9.9075472354888934 4.2559026628732664 6.6275655478239051 9.2734215557575208 4.3655887097120276 4.8066244572401038 7.8520475402474466 4.9006797373294857 7.532977491617209 4.3951049000024778 5.0393485128879547 8.7912565022706968 5.7001946568489066 5.6479616612195951 4.4364522248506546 4.8991492837667465 9.1899380534887296 6.7124565839767447 18.302538171410561 11.93890133500099 13.537142634391783
leaf_count=58 741 28 115 16 43 26 31 19 149 52 20 33 53 25 27 36 23 39 20 24 39 25 32 22 20 39 28 75 55 105
internal_value=0 -0.0592002 0.048782 -0.0688323 -0.0737948 0.0222604 0.0145679 0.0226984 -0.0844639 -0.0467736 0.0139064 0.0180895 0.02991 -0.0164517 0.0031144 0.0395642 0.020064 0.0360094 0.0670076 0.0157041 0.0960896 0.0541565 0.0263132 0.0602736 0.0561761 0.0974196 0.0881317 0.0786073 0.0343038 -0.0947287
internal_weight=0 153.95 176 147.429 144.059 113.895 107.828 100.83 128.434 27.4914 15.6244 96.7086 72.0515 24.6571 20.2915 62.7781 36.7003 30.0728 26.0778 9.43445 16.6433 25.1721 15.4849 10.0844 9.15505 62.1055 52.9155 46.2031 19.4719 100.943
internal_count=2018 1174 844 1146 1130 587 561 503 1047 201 83 484 347 137 112 294 175 142 119 44 75 119 85 54 40 257 218 190 94 846
is_linear=0
shrinkage=0.1


Tree=8
num_leaves=31
num_cat=0
split_feature=7 10 4 11 4 10 4 2 7 10 11 3 12 0 3 0 6 0 12 0 12 2 2 4 2 2 0 0 0 2
split_gain=80.5806 28.357 18.8774 12.313 10.0198 9.72011 8.31978 5.28811 4.4765 3.61733 4.2219 3.62372 3.57183 3.30221 4.19182 6.58105 4.33415 3.11019 3.44455 2.9028 2.31732 2.02849 4.41554 3.38376 2.3909 2.25649 2.64977 4.27885 2.39746 1.6862
threshold=1.0000000180025095e-35 51.500000000000007 10.500000000000002 50.500000000000007 11.500000000000002 68.500000000000014 4.5000000000000009 77848.500000000015 4.5000000000000009 51.500000000000007 49.500000000000007 9.5000000000000018 43.500000000000007 16.500000000000004 14.500000000000002 33.500000000000007 3.5000000000000004 19.500000000000004 31.500000000000004 33.500000000000007 49.500000000000007 177128.00000000003 224299.50000000003 8.5000000000000018 198246.50000000003 86432.500000000015 25.500000000000004 30.500000000000004 39.500000000000007 126531.50000000001
decision_type=2 2 2 2 2 2 2 2 2 2 2 2 2 2 2 2 2 2 2 2 2 2 2 2 2 2 2 2 2 2
left_child=2 3 5 4 13 6 -1 -6 12 10 11 29 -9 -2 -15 16 -16 -8 -19 -13 -14 25 24 -24 -23 -20 -27 -28 -29 -4
right_child=1 -3 9 -5 7 -7 17 8 -10 -11 -12 19 20 14 15 -17 -18 18 21 -21 -22 22 23 -25 -26 26 27 28 -30 -31
leaf_value=-0.099847122917004608 -0.1040341656966751 0.1149129090777868 0.0107217715872271 0.14050077974281522 0.076457219574322291 0.13008833473046363 -0.012035626852270203 -0.085771295229778152 0.05730231148691161 0.13833136112244102 0.14822763788330462 0.13268651796996242 0.049643562865377799 -0.085020622262806086 0.030321196316346079 0.11636103017190347 -0.11858044379451621 -0.054511625295208657 0.062443999672170673 0.049314168162547009 -0.051540909405476266 0.059984083597081218 -0.027696886267274859 0.065343226727079262 0.1479830108535842 0.071871940369831563 -0.099404416971942883 0.041296740444759755 -0.039664693390363458 0.060176618672731469
leaf_weight=6.4964229986071578 55.873631164431572 9.0544456914067251 9.7503283619880659 2.7796678692102423 4.4945312589406958 7.1740213483571997 26.042956955730915 15.365075342357164 4.0408941805362693 10.726517692208288 6.9543996751308432 11.178812295198442 4.0475410073995572 34.051965586841106 3.2301907986402494 2.8632076233625403 4.95100287348032 4.6205715611577025 8.612627834081648 6.6666032224893561 5.1347319334745407 6.9484501481056231 7.7270921096205694 7.9108396023511887 5.5564775019884109 4.5620384663343456 4.4257559776306179 10.053455412387846 5.74923551082611 23.536976918578148
leaf_count=58 508 45 43 18 27 32 146 126 17 47 30 47 21 295 27 21 43 34 41 27 26 29 39 33 23 22 22 46 29 96
internal_value=0 -0.056477 0.0442016 -0.0678182 -0.0721378 0.0177006 0.00953215 -0.0243754 -0.0402279 0.0849773 0.0751249 0.0651824 -0.0562829 -0.0877872 -0.0676574 -0.0141233 -0.0597894 0.0172382 0.0287603 0.101541 -0.00693885 0.035012 0.0547906 0.0193698 0.0990858 0.0183481 0.00302843 -0.0124976 0.0118419 0.0456906
internal_weight=0 145.887 174.694 136.832 134.053 105.88 98.7059 33.0828 28.5882 68.8136 58.0871 51.1327 24.5473 100.97 45.0964 11.0444 8.18119 92.2095 66.1665 17.8454 9.18227 61.546 28.1429 15.6379 12.5049 33.4031 24.7905 20.2284 15.8027 33.2873
internal_count=2018 1174 844 1129 1111 554 522 217 190 290 243 213 173 894 386 91 70 464 318 74 47 284 124 72 52 160 119 97 75 139
is_linear=0
shrinkage=0.1


Tree=9
num_leaves=31
num_cat=0
split_feature=7 10 4 4 10 4 4 7 12 7 0 12 12 10 2 6 0 2 1 6 12 0 0 12 4 12 0 0 0 6
split_gain=67.9157 24.5169 15.6998 12.5994 9.22596 7.6745 6.61707 5.64659 5.28895 4.84076 3.17061 3.74857 3.01457 2.76028 2.71437 2.705 4.10938 5.8093 2.62611 3.68386 3.38523 2.59292 2.55625 3.15668 4.05554 2.9213 4.46473 2.46669 2.07119 2.5544
threshold=1.0000000180025095e-35 95.500000000000014 11.500000000000002 11.500000000000002 92.500000000000014 6.5000000000000009 13.500000000000002 4.5000000000000009 43.500000000000007 4.5000000000000009 15.500000000000002 31.500000000000004 45.500000000000007 79.500000000000014 86432.500000000015 4.5000000000000009 33.500000000000007 117646.00000000001 1.5000000000000002 9.5000000000000018 43.500000000000007 15.500000000000002 26.500000000000004 43.500000000000007 8.5000000000000018 44.500000000000007 32.500000000000007 23.500000000000004 9.5000000000000018 6.5000000000000009
decision_type=2 2 2 2 2 2 2 2 2 2 2 2 2 2 2 2 2 2 2 2 2 2 2 2 2 2 2 2 2 2
left_child=2 3 4 9 5 12 7 8 -5 -2 28 -12 -1 14 -4 22 17 -17 -16 27 -21 -10 23 -13 -25 26 -24 -20 -7 -30
right_child=1 -3 13 6 -6 10 -8 -9 21 -11 11 15 -14 -15 18 16 -18 -19 19 20 -22 -23 25 24 -26 -27 -28 -29 29 -31
leaf_value=-0.10316108652317457 -0.088441019097993998 0.14454044328487556 0.010952537301732191 -0.080051358442414997 0.14413241590808781 -0.092352639910827483 0.11882160596236518 0.069057718005445287 -0.06074186552532386 -0.014444384702246413 -0.057569892174051375 -0.058441045758096638 0.0068941761719867314 0.13441293753594249 0.011787524131880334 -0.013179222716769051 0.0070877932656102458 0.1045773846955937 0.072182153496126208 -0.01416999657515353 0.093554679803336552 0.047858701296250951 0.13811009637327973 0.095279867460864073 -0.032724874314768601 -0.016407318103995715 0.024385037820316625 0.13167908918586255 -0.039379269186309941 0.060541202984054167
leaf_weight=7.4993452727794629 88.086770169436932 5.9694427847862235 6.2638826221227637 16.139836773276336 5.5230644941329947 3.2921527773141852 3.5268733352422705 5.2445098906755439 3.260924890637396 9.8270437568426114 4.777891442179679 8.0968762040138262 3.7251922935247421 8.417905926704405 4.8788778334856024 5.4206264466047314 12.518440663814543 18.44461964070797 11.456602394580843 5.5993024855852109 6.0898750871419907 6.7478282302618027 5.1913541704416302 4.5465140044689161 5.4326509237289429 6.7328044325113288 10.303836211562155 17.786687046289444 6.8128039836883527 4.0970637947320938
leaf_count=67 856 28 27 139 26 22 16 22 23 61 35 41 24 39 20 27 58 79 48 23 25 29 23 22 24 30 46 75 41 22
internal_value=0 -0.0537128 0.0402063 -0.0626221 0.0181018 0.0115899 -0.0110511 -0.0256418 -0.0446352 -0.0810144 0.020768 0.0283691 -0.066636 0.0812833 0.072695 0.0337234 0.0534904 0.0778308 0.0811371 0.0894031 0.0419528 0.0124758 0.015879 -0.0120481 0.0255942 0.0385897 0.0624863 0.10837 -0.0228334 -0.00185539
internal_weight=0 138.803 172.908 132.834 112.415 106.892 34.92 31.3931 26.1486 97.9138 95.6676 81.4656 11.2245 60.4931 52.0752 76.6877 36.3837 23.8652 45.8113 40.9325 11.6892 10.0088 40.304 18.076 9.97916 22.228 15.4952 29.2433 14.202 10.9099
internal_count=2018 1174 844 1146 587 561 229 213 191 917 470 385 91 257 218 350 164 106 191 171 48 52 186 87 46 99 69 123 85 63
is_linear=0
shrinkage=0.1


Tree=10
num_leaves=31
num_cat=0
split_feature=7 10 4 4 10 4 4 0 11 0 4 0 10 11 12 0 2 0 0 0 12 12 7 2 2 4 0 6 6 0
split_gain=57.3033 21.1924 13.1934 10.1573 7.41547 6.55655 4.5912 4.48587 3.42751 3.99486 4.03041 5.53606 3.22572 3.78354 3.21115 3.41595 2.66997 2.59864 2.45991 4.26662 2.34858 2.23847 6.26422 2.08005 4.07367 3.23315 3.76572 2.13727 1.55932 1.49064
threshold=1.0000000180025095e-35 51.500000000000007 10.500000000000002 11.500000000000002 92.500000000000014 4.5000000000000009 13.500000000000002 13.500000000000002 19.500000000000004 16.500000000000004 8.5000000000000018 30.500000000000004 79.500000000000014 49.500000000000007 41.500000000000007 18.500000000000004 167931.00000000003 15.500000000000002 30.500000000000004 23.500000000000004 31.500000000000004 39.500000000000007 4.5000000000000009 177128.00000000003 194975.50000000003 8.5000000000000018 28.500000000000004 5.5000000000000009 8.5000000000000018 29.500000000000004
decision_type=2 2 2 2 2 2 2 2 2 2 2 2 2 2 2 2 2 2 2 2 2 2 2 2 2 2 2 2 2 2
left_child=2 3 4 8 5 -1 7 -5 9 -2 -11 -12 13 14 18 -16 -13 -7 19 -4 -19 22 29 -22 -25 26 -26 -27 -3 -9
right_child=1 28 12 6 -6 17 -8 21 -10 10 11 16 -14 -15 15 -17 -18 20 -20 -21 23 -23 -24 24 25 27 -28 -29 -30 -31
leaf_value=-0.095555542576995056 -0.10192196352242483 0.054218006771994655 0.0047724153851087707 -0.086769035721207033 0.13836393506329236 -0.023901609940443162 0.096321784837882549 -0.096758889259716596 0.031614559757592885 -0.084353031206198928 -0.065867878019246331 -0.0071505950897730111 0.12857607541311886 0.13496029405576276 0.015567329963917846 0.096397290921601139 0.12844974770245268 -0.049006490791929175 -0.0099665080287973003 0.11952697933945861 0.010475050703996305 0.039221179566273634 0.1020928249919618 0.11337040557374932 -0.063892038447072322 0.0319946045100327 0.037579484253442902 0.11421804124743395 0.14017124866421088 -0.016508984117757416
leaf_weight=5.69603357464075 47.918989837169647 3.8490354716777784 7.3692205548286456 8.77987088263035 4.6089843064546576 14.551361143589018 3.3728486597537986 6.03404548764229 2.7135398760437957 24.255500122904778 9.5031765028834325 3.0224054381251326 8.5726855993270856 6.4712490886449805 6.9272317588329342 21.319077759981155 2.7947420179843903 4.3909179195761672 10.337393596768377 5.7822397500276566 39.50980918854475 8.1795845776796323 2.8672167509794226 6.808270886540412 6.2544110268354443 8.4225259125232679 8.8075271397829038 5.0608575344085684 4.6731328368186951 3.7550624758005142
leaf_count=58 503 22 32 76 23 90 15 59 25 240 91 22 42 30 29 90 24 35 43 24 189 36 12 29 34 36 39 21 23 26
internal_value=0 -0.0511569 0.0366135 -0.0617066 0.0143603 0.00861637 -0.0142245 -0.0268143 -0.0790705 -0.0825032 -0.0589907 -0.0188366 0.071307 0.0628724 0.0538553 0.0765742 0.0579961 0.0149419 0.0265349 0.055226 0.0220736 -0.00155043 -0.0279005 0.0262427 0.043864 0.0272861 -0.00455617 0.0628564 0.10135 -0.0659753
internal_weight=0 131.719 170.89 123.197 104.111 99.5017 32.9886 29.6158 90.2084 87.4948 39.5758 15.3203 66.7791 58.2064 51.7352 28.2463 5.81715 93.8057 23.4889 13.1515 79.2543 20.8359 12.6563 74.8634 35.3536 28.5453 15.0619 13.4834 8.52217 9.78911
internal_count=2018 1174 844 1129 554 531 224 209 905 880 377 137 290 248 218 119 46 473 99 56 383 133 97 348 159 130 73 57 45 85
is_linear=0
shrinkage=0.1


Tree=11
num_leaves=31
num_cat=0
split_feature=7 10 10 11 7 4 4 4 0 0 4 7 0 12 2 12 6 8 6 0 4 0 12 1 2 0 0 6 6 3
split_gain=48.411 18.8971 11.3048 11.8192 10.4679 8.12379 7.12778 6.60771 5.01444 4.77455 4.20023 4.60244 3.17961 2.81203 2.98935 4.48182 2.75092 4.33837 2.68997 2.44382 2.40982 2.61154 2.17941 2.14581 2.08668 1.92357 2.23951 4.4288 2.41696 1.90992
threshold=1.0000000180025095e-35 95.500000000000014 79.500000000000014 45.000000000000007 4.5000000000000009 12.500000000000002 13.500000000000002 6.5000000000000009 8.5000000000000018 16.500000000000004 8.5000000000000018 2.5000000000000004 42.500000000000007 64.500000000000014 117646.00000000001 43.500000000000007 2.5000000000000004 3.5000000000000004 3.5000000000000004 33.500000000000007 8.5000000000000018 21.500000000000004 47.500000000000007 3.5000000000000004 92754.500000000015 15.500000000000002 22.500000000000004 6.5000000000000009 3.5000000000000004 8.5000000000000018
decision_type=2 2 2 2 2 2 2 2 2 2 2 2 2 2 2 2 2 2 2 2 2 2 2 2 2 2 2 2 2 2
left_child=2 4 3 5 6 7 9 22 -9 -2 -11 29 13 14 15 24 -16 -18 -17 -7 -6 -22 -1 -14 -10 -19 27 -27 -28 -12
right_child=1 -3 -4 -5 20 19 -8 8 12 10 11 -13 23 -15 16 18 17 25 -20 -21 21 -23 -24 -25 -26 26 28 -29 -30 -31
leaf_value=-0.099908987040450606 -0.09405556505699926 0.1349319284161454 0.12113620018822054 0.13538841751040781 -0.030791570154392978 0.11419944922644452 0.078662961841221832 -0.093983338279066062 -0.012515459049422611 -0.084057541390354498 -0.074349285838074153 -0.079092463274854363 -0.082826680973632882 -0.048789229081313848 0.0097130022104244488 0.09175073070994437 -0.026731093365600617 0.0099834039727138627 -0.0051467328876066776 0.036979988595785794 -0.0016593522752310144 0.10350900956904499 0.00068677300646063802 0.016218824006086197 -0.099502992345354896 0.026174800715461539 0.098244969637278412 0.15119872577384619 0.035530066179180593 0.017766374557111424
leaf_weight=6.8006992712616903 51.567565776407719 5.3667536973953238 13.50694404542446 9.2480132207274419 5.6167563721537581 10.322033226490023 3.2095516473054877 3.9523152559995642 7.0225799083709735 21.537720002233982 2.6287502497434678 10.284789867699144 4.7462190538644773 4.8798272162675849 23.611627832055092 5.528776600956915 6.4124503061175337 6.451260194182395 5.9463745057582855 6.797305390238761 4.6347078233957273 4.8133218288421631 3.1517997458577156 4.0571933537721634 4.5407666116952896 4.5037375092506391 8.6823531091213244 7.6393230855464935 21.027933329343796 15.658028602600096
leaf_count=68 581 28 70 44 43 47 14 24 37 232 27 88 26 24 112 25 29 34 28 28 22 20 21 25 23 20 36 32 91 119
internal_value=0 -0.0486533 0.0333864 0.0257556 -0.0568671 0.0188147 -0.0680628 0.0102223 0.0167686 -0.0726944 -0.0507115 -0.0255747 0.0205732 0.0253585 0.028928 -0.00273654 0.0382414 0.050552 0.0415389 0.0835391 0.0210811 0.0519189 -0.0680519 -0.03718 -0.0466743 0.0608113 0.0686459 0.104829 0.0538575 0.00452462
internal_weight=0 125.318 168.83 155.323 119.951 146.075 104.886 128.955 119.003 101.677 50.1093 28.5716 115.05 106.247 101.367 23.0385 78.3287 54.7171 11.4752 17.1193 15.0648 9.44803 9.9525 8.80341 11.5633 48.3046 41.8533 12.1431 29.7103 18.2868
internal_count=2018 1174 844 774 1146 730 1061 655 566 1047 466 234 542 491 467 113 354 242 53 75 85 42 89 51 60 213 179 52 127 146
is_linear=0
shrinkage=0.1


Tree=12
num_leaves=31
num_cat=0
split_feature=7 10 10 11 4 4 4 7 0 4 0 1 6 0 0 4 2 6 4 12 2 0 0 0 0 12 4 0 7 12
split_gain=40.8946 16.3457 10.104 9.99044 9.42631 6.83415 5.58203 4.31125 4.20146 3.58786 3.80764 2.94586 3.7907 3.83302 2.93586 4.40676 2.53141 2.66996 2.50957 3.31304 2.41984 2.60128 2.30329 2.18591 2.15877 2.01961 1.91796 3.17875 1.90039 4.18161
threshold=1.0000000180025095e-35 95.500000000000014 79.500000000000014 45.000000000000007 11.500000000000002 12.500000000000002 6.5000000000000009 4.5000000000000009 8.5000000000000018 13.500000000000002 13.500000000000002 4.5000000000000009 6.5000000000000009 25.500000000000004 23.500000000000004 9.5000000000000018 171978.00000000003 10.500000000000002 8.5000000000000018 42.500000000000007 196001.50000000003 26.500000000000004 24.500000000000004 33.500000000000007 18.500000000000004 47.500000000000007 10.500000000000002 34.500000000000007 4.5000000000000009 43.500000000000007
decision_type=2 2 2 2 2 2 2 2 2 2 2 2 2 2 2 2 2 2 2 2 2 2 2 2 2 2 2 2 2 2
left_child=2 4 3 5 7 6 25 -2 -8 10 -6 12 14 24 18 -16 22 -18 19 -10 21 -9 -13 -7 -14 -1 27 -15 29 -12
right_child=1 -3 -4 -5 9 23 8 20 11 -11 28 16 13 26 15 -17 17 -19 -20 -21 -22 -23 -24 -25 -26 -27 -28 -29 -30 -31
leaf_value=-0.097408551703766097 -0.080329407961451008 0.13052548280234519 0.11614537404511167 0.12580359658581777 -0.080195835968880136 0.10712810505857558 -0.088584393951915613 -0.097451423846220117 -0.037025564673260236 0.083915263863439893 -0.055598163270290747 0.014029365300324489 0.050663044623922605 0.094322458052457203 0.0076454489385174244 0.090222289228983954 0.059491913935202978 -0.032838188906217369 -0.047701159816143313 0.080414446216364205 0.067926059992874252 0.031782360294340999 -0.078119833602839917 0.033427221019796574 0.11775149466417936 0.00061783307610924882 -0.029667153193873131 -0.019631824458532537 0.063785244477162426 0.044711266926399491
leaf_weight=6.3034546598792058 72.436117850244045 5.0114131718873969 12.719462588429449 8.9718096703290922 7.7700593918561962 9.9239039570093173 3.7828513979911795 3.6522745192050916 4.9063782989978808 3.7247461825609198 9.7512345239520126 4.2036367431283015 10.073044151067736 5.4121496826410276 24.696589387953281 8.7529928237199766 7.1098636537790281 5.5979315564036369 12.320595011115072 4.7062629163265228 2.8951119482517242 2.7156004905700684 7.6465556994080544 6.7692839205265036 9.1560618132352811 3.1530886292457581 5.7983255535364142 4.4694295227527618 3.9972070008516303 7.2425331324338904
leaf_count=68 856 28 70 44 76 47 24 26 27 16 89 22 47 24 115 37 34 29 59 23 18 17 40 28 39 21 24 22 17 31
internal_value=0 -0.046239 0.0304903 0.0234044 -0.053997 0.0170589 0.00921566 -0.0721147 0.0151096 -0.00843226 -0.0203919 0.018525 0.0268774 0.0526854 0.0106101 0.0292539 -0.0121842 0.0188194 -0.017823 0.020472 -0.00787625 -0.0423393 -0.0454316 0.0772415 0.0826076 -0.0647237 0.0159902 0.042781 0.00174527 -0.0128475
internal_weight=0 119.196 166.474 153.754 114.185 144.782 128.089 81.6991 118.633 32.4858 28.761 114.85 90.2918 34.909 55.3828 33.4496 24.558 12.7078 21.9332 9.61264 9.26299 6.36788 11.8502 16.6932 19.2291 9.45654 15.6799 9.88158 20.991 16.9938
internal_count=2018 1174 844 774 1146 730 655 917 566 229 213 542 417 156 261 152 125 63 109 50 61 43 62 75 86 89 70 46 137 120
is_linear=0
shrinkage=0.1


Tree=13
num_leaves=31
num_cat=0
split_feature=7 10 10 11 11 4 4 4 0 5 2 5 0 7 7 0 1 12 0 1 6 0 0 4 2 2 12 2 0 4
split_gain=34.551 14.1647 9.04767 8.74053 8.47832 7.18603 5.75805 4.71562 3.52203 3.2855 8.20112 5.66514 4.06216 2.8407 4.04951 2.81541 2.7513 4.71145 2.43873 2.3906 3.05349 3.09689 2.38705 3.89345 4.22337 2.29696 2.14338 2.0916 2.49317 2.05795
threshold=1.0000000180025095e-35 95.500000000000014 79.500000000000014 50.500000000000007 45.000000000000007 11.500000000000002 12.500000000000002 6.5000000000000009 8.5000000000000018 3.5000000000000004 286739.00000000006 1.5000000000000002 42.500000000000007 4.5000000000000009 1.5000000000000002 14.500000000000002 4.5000000000000009 43.500000000000007 29.500000000000004 4.5000000000000009 6.5000000000000009 25.500000000000004 23.500000000000004 8.5000000000000018 201715.50000000003 232595.50000000003 42.500000000000007 171978.00000000003 26.500000000000004 8.5000000000000018
decision_type=2 2 2 2 2 2 2 2 2 2 2 2 2 2 2 2 2 2 2 2 2 2 2 2 2 2 2 2 2 2
left_child=2 3 4 5 6 9 7 -1 -9 10 12 -12 -2 14 15 -7 17 -17 -16 20 22 -22 29 24 -24 26 -25 -21 -29 -10
right_child=1 -3 -4 -5 -6 13 -8 8 19 -11 11 -13 -14 -15 18 16 -18 -19 -20 27 21 -23 23 25 -26 -27 -28 28 -30 -31
leaf_value=-0.061477765686155705 -0.078924835046433509 0.12679244064683245 0.11165696399505649 0.12578516150567229 0.11726339278028784 -0.062926277117903301 0.071512316128975281 -0.083462681405321926 0.01828155581353574 -0.089435535192808849 -0.024872022819435045 0.20444459484933541 0.072616632567562067 0.053312482353619212 -0.12082440724274997 -0.0053796388523346473 -0.054199344484797421 0.1445423879639747 -0.0033606499203096421 -0.041795921118310264 0.074173957418963321 0.014347566876756339 0.022508011086579672 -0.014690862779024838 -0.090795792847216852 0.12100339399000565 0.072282051613555151 -0.035517672375181483 0.054296187276362054 -0.043575320917633893
leaf_weight=8.9970619678497297 24.473614066839225 4.6610704660415641 11.947735026478766 2.7197276204824439 8.678157299757002 5.011079356074343 16.258232519030571 3.6220182403922072 9.6518419682979602 45.027431882917881 2.3468434140086165 1.9914904013276098 1.9066703915595997 5.1170970350503913 5.8354081213474256 5.1702602133154851 3.1092898845672599 3.5254756063222885 2.5354486107826233 11.616956353187563 19.274989724159241 15.700240999460219 12.544955044984819 4.7004097551107424 4.4591856971383086 4.601216845214366 7.1344016492366791 5.2959775477647764 7.4226309061050415 12.147815242409704
leaf_count=89 263 28 70 18 44 50 75 24 50 584 29 14 16 22 59 45 18 15 13 62 86 70 59 20 23 20 30 27 36 59
internal_value=0 -0.0439136 0.0278643 -0.0512288 0.0212825 -0.0557685 0.0154752 0.00831102 0.0136244 -0.0722334 -0.0470184 0.0803946 -0.067972 -0.0146138 -0.0284141 -0.0001239 0.0265349 0.0554026 -0.0852458 0.0166942 0.0241972 0.0473181 0.00955817 0.0263421 -0.00720491 0.0610487 0.0377392 -0.0111204 0.0168981 -0.0161881
internal_weight=0 113.431 164.054 108.77 152.106 106.05 143.428 127.17 118.173 75.7461 30.7186 4.33833 26.3803 30.3041 25.187 16.8161 11.805 8.69574 8.37086 114.551 90.2151 34.9752 55.2398 33.4402 17.0041 16.436 11.8348 24.3356 12.7186 21.7997
internal_count=2018 1174 844 1146 774 1128 730 655 566 906 322 43 279 222 200 128 78 60 72 542 417 156 261 152 82 70 50 125 63 109
is_linear=0
shrinkage=0.1


Tree=14
num_leaves=31
num_cat=0
split_feature=7 10 10 0 11 11 4 4 0 4 8 12 6 11 1 0 2 2 12 12 0 2 6 0 2 0 2 0 0 0
split_gain=29.2231 12.3009 8.11694 7.76871 7.56997 7.21823 6.41035 4.81673 4.72672 4.11159 3.63561 3.31418 2.91181 2.76447 2.41998 2.436 3.61245 2.89442 2.67341 2.47135 4.78922 2.11118 2.10716 2.07693 2.01011 2.33163 2.22629 1.91039 1.89274 1.87136
threshold=1.0000000180025095e-35 95.500000000000014 79.500000000000014 8.5000000000000018 50.500000000000007 45.000000000000007 8.5000000000000018 12.500000000000002 29.500000000000004 4.5000000000000009 1.5000000000000002 39.500000000000007 3.5000000000000004 52.500000000000007 6.5000000000000009 15.500000000000002 354379.50000000006 276941.00000000006 41.500000000000007 49.500000000000007 25.500000000000004 149968.50000000003 3.5000000000000004 33.500000000000007 117646.00000000001 42.500000000000007 157713.50000000003 9.5000000000000018 12.500000000000002 30.500000000000004
decision_type=2 2 2 2 2 2 2 2 2 2 2 2 2 2 2 2 2 2 2 2 2 2 2 2 2 2 2 2 2 2
left_child=2 3 5 -2 6 7 10 9 11 -1 -5 -8 -13 -7 15 22 17 18 24 -20 -21 -10 28 -9 -17 26 -26 -24 -11 -28
right_child=1 -3 -4 4 -6 13 8 23 21 14 -12 12 -14 -15 -16 16 -18 -19 19 20 -22 -23 27 -25 25 -27 29 -29 -30 -31
leaf_value=-0.087491080023125473 -0.098039721218490208 0.12360367286750296 0.10755947422000829 0.07288910354586603 0.13745403968653988 0.16051596711081784 -0.062267945981210451 0.096604010782267019 -0.0061575525885411361 0.07454840165665183 -0.082722481919687216 0.067128645808794851 -0.031035078898071729 0.044806838869752424 -0.065456698200035163 -0.034131161193792066 0.081359340832308974 -0.040762528489812579 0.059329382725367613 0.063537443714095934 -0.048147984952995077 0.073334782123120001 -0.11009961510429103 0.023360244489583928 0.07769852599032967 -0.058754776341624883 0.033196629881016154 -0.019597936146429046 -0.028308103577961093 -0.025281195473616055
leaf_weight=4.3987982720136634 24.332764238119125 4.3206682354211798 11.201342880725859 1.5836052298545862 2.509621635079383 4.6862576156854612 19.531168945133686 9.2326922565698606 6.5264274403452855 3.4701383784413364 28.919193036854267 4.5661278218030921 8.9342525079846364 3.691137820482254 4.0124560892581931 11.080773092806337 8.6490470170974714 8.8041846305131894 23.245598629117012 7.6707283705472928 7.6871903389692307 6.8451406136155128 3.4281976595520955 6.6672476083040229 6.2283735871315029 3.7843173220753661 13.970895603299143 7.2971687167882919 3.6930761858820915 8.9961214140057546
leaf_count=57 332 28 70 17 15 24 218 47 42 23 371 33 67 20 23 58 41 40 102 34 36 51 23 28 28 23 66 39 22 40
internal_value=0 -0.041719 0.0254313 -0.048604 -0.033457 0.0193266 -0.0390342 0.0140167 -0.0156266 0.00749222 -0.0746436 -0.035933 0.00216607 0.109534 0.0109164 0.0135133 0.0195865 0.0137454 0.0195508 0.0387634 0.00763487 0.034536 -0.0204769 0.065891 0.0027177 0.0150985 0.0246713 -0.0485254 0.0215196 0.010291
internal_weight=0 108.069 161.896 103.748 79.4155 150.694 76.9059 142.317 46.4031 126.417 30.5028 33.0315 13.5004 8.3774 122.018 118.006 100.117 91.4682 82.664 38.6035 15.3579 13.3716 17.8886 15.8999 44.0605 32.9797 29.1954 10.7254 7.16321 22.967
internal_count=2018 1174 844 1146 814 774 799 730 411 655 388 318 100 44 598 575 468 427 387 172 70 93 107 75 215 157 134 62 45 106
is_linear=0
shrinkage=0.1


Tree=15
num_leaves=31
num_cat=0
split_feature=5 4 10 5 10 0 10 11 4 4 4 6 6 2 6 2 1 7 0 9 2 12 12 2 12 4 0 2 0 6
split_gain=24.9345 10.8997 7.70479 7.20956 6.03044 5.73796 5.16624 5.87384 5.47092 4.98681 4.26878 3.31872 10.6225 3.96046 3.17217 6.41784 2.70959 3.49697 2.39236 5.96476 3.04554 2.25106 2.19287 2.13806 2.03434 1.87794 1.66189 2.77752 1.61101 3.31722
threshold=3.5000000000000004 8.5000000000000018 99.500000000000014 1.0000000180025095e-35 68.500000000000014 8.5000000000000018 92.500000000000014 45.000000000000007 14.500000000000002 12.500000000000002 3.5000000000000004 3.5000000000000004 8.5000000000000018 35527.000000000007 2.5000000000000004 300161.00000000006 3.5000000000000004 2.5000000000000004 30.500000000000004 1.0000000180025095e-35 207102.00000000003 42.500000000000007 57.000000000000007 194555.50000000003 47.500000000000007 11.500000000000002 21.500000000000004 149467.00000000003 20.500000000000004 4.5000000000000009
decision_type=2 2 2 2 2 2 2 2 2 2 2 2 2 2 2 2 2 2 2 2 2 2 2 2 2 2 2 2 2 2
left_child=1 3 9 -1 10 -3 7 8 11 16 -5 14 -13 -14 15 26 -2 23 19 -15 25 -12 24 -18 -16 -20 27 -7 29 -23
right_child=2 5 -4 4 -6 6 -8 -9 -10 -11 21 12 13 18 22 -17 17 -19 20 -21 -22 28 -24 -25 -26 -27 -28 -29 -30 -31
leaf_value=-0.095000630762682392 -0.086882167816027339 -0.087115402115296531 0.12092488972986321 -0.11030151666962584 0.13195632925735512 -0.13539620917307493 0.11066989058291682 0.12438193222417125 0.1374877638109471 0.022831052896975672 -0.01719955336279403 -0.080455564008982128 -0.09079970217823996 -0.051267211143100545 0.064281011080414327 0.1217913447382149 0.091008960198702915 -0.088024753902211483 0.089634462643414445 0.071135144112047424 -0.053309538808539704 0.11973696230245257 0.0091709697105373088 -0.055925276384809035 0.1414839520955031 0.0027103019043089073 0.010931263028748469 -0.0019619654813447102 0.0016556678514684595 -0.0061394473110748631
leaf_weight=9.6792996600270254 41.78956001251936 3.8403433188796035 2.2866706848144522 3.9363217055797568 3.1664978414773932 2.586998604238036 8.8369632512330991 6.3959209918975821 4.2082708477973929 5.6423929035663596 39.631227966398001 11.504635035991667 2.7164263054728499 4.7695267200469997 13.526498623192316 4.2823860347270957 2.76922709494829 4.4337468445301056 4.0042250156402606 24.086757473647594 6.0494996234774581 4.2126224488019961 5.0391172692179671 1.5416264310479162 4.5650644749402991 6.5526632368564606 9.2950382158160192 3.9295923039317131 13.897192038595675 4.1619231216609478
leaf_count=135 586 25 16 52 19 17 60 37 20 35 248 70 14 40 69 23 29 65 23 116 30 24 23 19 21 31 55 23 69 24
internal_value=0 0.0150311 -0.0590098 -0.0141788 -0.00284206 0.0332447 0.0370226 0.0312892 0.0257306 -0.066334 -0.0093251 0.0211605 0.00587785 0.0264933 0.0422624 0.0131972 -0.0762897 -0.0256697 0.0335017 0.0509038 0.00326261 -0.00290415 0.0675118 0.0384631 0.0837617 0.0356806 -0.0162142 -0.0549336 0.0225337 0.0571798
internal_weight=0 204.875 58.4632 78.6851 69.0058 126.19 122.35 113.513 107.117 56.1766 65.8393 102.908 59.6837 48.1791 43.2247 20.094 50.5342 8.7446 45.4627 28.8563 16.6064 61.903 23.1307 4.31085 18.0916 10.5569 15.8116 6.51659 22.2717 8.37455
internal_count=2018 1268 750 571 436 697 672 612 575 734 417 555 324 254 231 118 699 113 240 156 84 365 113 48 90 54 95 40 117 48
is_linear=0
shrinkage=0.1


Tree=16
num_leaves=31
num_cat=0
split_feature=5 4 10 5 10 11 4 4 4 0 1 2 2 6 6 6 2 12 2 1 12 7 13 2 10 0 0 0 1 0
split_gain=21.3616 9.00877 6.7139 6.4438 5.23249 5.67396 5.04401 4.47256 3.82845 3.63316 3.27407 5.12862 2.8519 3.28153 7.59443 5.26577 5.10882 2.98104 3.81921 2.55415 3.2045 2.41173 2.28643 2.17274 1.6978 1.64959 1.54872 3.00237 4.10328 1.42489
threshold=3.5000000000000004 8.5000000000000018 99.500000000000014 1.0000000180025095e-35 92.500000000000014 45.000000000000007 14.500000000000002 12.500000000000002 3.5000000000000004 8.5000000000000018 1.5000000000000002 33125.000000000007 349492.50000000006 2.5000000000000004 3.5000000000000004 8.5000000000000018 245708.00000000003 47.500000000000007 202562.50000000003 3.5000000000000004 35.500000000000007 2.5000000000000004 37.500000000000007 130026.00000000001 51.500000000000007 26.500000000000004 15.500000000000002 17.500000000000004 1.5000000000000002 29.500000000000004
decision_type=2 2 2 2 2 2 2 2 2 2 2 2 2 2 2 2 2 2 2 2 2 2 2 2 2 2 2 2 2 2
left_child=1 3 7 -1 5 6 9 19 -5 -3 -11 -12 13 17 23 -16 29 18 25 26 -21 -22 -10 -15 -24 -13 -2 -28 -29 -17
right_child=2 4 -4 8 -6 -7 -8 -9 22 10 11 12 -14 14 15 16 -18 -19 -20 20 21 -23 24 -25 -26 -27 27 28 -30 -31
leaf_value=-0.092834050395736556 -0.099419195697527524 -0.082018567737920586 0.11854268833616616 -0.10118326287145525 0.10751790569777497 0.11958347088489943 0.12964453535780573 0.020363828103981733 -0.073246167140857132 -0.033479658412534412 -0.11725856949777354 -0.088634689714907289 0.088657037125703553 0.049123883575884583 -0.054864495155535487 0.062880117661958349 -0.048364991717583565 -0.083988797448182093 0.077590686479028309 -0.10731054538599849 0.071885993428733544 -0.064520124981007954 0.0032446067337039437 0.12180862737740783 0.070335129017756418 0.010045582903232503 0.041312817968721202 0.063942721736889113 -0.10390488862179965 0.019998916066274949
leaf_weight=8.9522841088473779 24.744600180536509 3.6796147376298896 2.1084963083267203 3.7261867150664321 8.2183900028467161 6.0074756592512122 4.0260549634695044 5.6906968206167212 3.7026205025613299 10.607328020036219 2.4592521488666526 3.306780196726324 7.3821261525154105 7.0574916079640415 9.1074375882744771 19.81182661652565 6.9460037127137175 4.6549083516001692 4.9297278895974159 2.9934450723230821 3.4798934534192085 2.0655122473835945 56.999600648880005 9.8561613410711271 4.0392314046621314 3.4733479768037796 2.507519304752349 1.7064709141850443 9.9416249170899391 12.726974621415136
leaf_count=135 401 25 16 53 60 37 20 35 31 57 14 23 42 33 57 108 36 23 29 48 35 30 328 49 24 19 34 21 130 65
internal_value=0 0.0137261 -0.0564622 -0.0130492 0.0304097 0.0249482 0.019781 -0.0634074 -0.00261714 0.0156082 0.0191191 0.0252026 0.0291279 0.0237603 0.0337669 0.0136787 0.0294886 -0.0162949 0.0106148 -0.0734564 -0.0239306 0.0210784 0.00305582 0.0914798 0.00768431 -0.0380824 -0.0843276 -0.0579469 -0.0793149 0.0461079
internal_weight=0 201.671 55.2383 77.4199 124.251 116.033 110.025 53.1298 68.4676 105.999 102.319 91.712 89.2528 81.8707 65.5059 48.5922 39.4848 16.3648 11.7099 47.4391 8.53885 5.54541 64.7415 16.9137 61.0388 6.78013 38.9002 14.1556 11.6481 32.5388
internal_count=2018 1268 750 571 697 637 600 734 436 580 555 498 484 442 348 266 209 94 71 699 113 65 383 82 352 42 586 185 151 173
is_linear=0
shrinkage=0.1


Tree=17
num_leaves=31
num_cat=0
split_feature=5 10 11 10 4 11 4 5 11 7 6 2 2 0 6 6 12 9 0 6 11 2 2 1 12 2 4 12 2 2
split_gain=18.3293 8.17607 7.31094 5.85847 5.6057 5.75199 4.92424 4.32432 4.22479 4.31884 4.21716 5.11682 4.29554 4.08506 3.38916 3.09288 3.68754 4.24424 3.25193 2.88956 2.62475 2.25162 2.17532 2.03579 1.96697 1.83672 2.21492 5.68874 4.34231 3.20819
threshold=3.5000000000000004 92.500000000000014 45.000000000000007 99.500000000000014 6.5000000000000009 1.0000000180025095e-35 14.500000000000002 1.0000000180025095e-35 55.500000000000007 2.5000000000000004 8.5000000000000018 189401.00000000003 158594.00000000003 7.5000000000000009 13.500000000000002 3.5000000000000004 42.500000000000007 1.0000000180025095e-35 37.500000000000007 11.500000000000002 52.500000000000007 88117.500000000015 337550.50000000006 5.5000000000000009 47.500000000000007 41786.000000000007 8.5000000000000018 51.500000000000007 284223.00000000006 349492.50000000006
decision_type=2 2 2 2 2 2 2 2 2 2 2 2 2 2 2 2 2 2 2 2 2 2 2 2 2 2 2 2 2 2
left_child=1 2 4 8 24 6 7 15 9 10 22 12 21 -9 19 16 17 -6 -17 23 -4 -12 -2 25 -1 -15 28 29 -27 -28
right_child=3 -3 20 -5 5 -7 -8 13 -10 -11 11 -13 -14 14 -16 18 -18 -19 -20 -21 -22 -23 -24 -25 -26 26 27 -29 -30 -31
leaf_value=-0.096697207741932203 -0.089415125159568842 0.10315041126139349 0.15333363068389017 0.11647078135955324 -0.11068502558706667 -0.11783634696320984 0.12273494084162349 -0.080660829055246422 0.10928786035553602 -0.099152220035091831 0.075775102659092097 -0.074426319576237923 0.18367961855411338 -0.034630321042519632 -0.064131705269676237 -0.089935906611225108 0.094931318630487149 0.066995208659820324 0.059192440752548516 0.06854718307898959 0.042076444937688411 -0.054547341890663285 0.020332932716287083 0.086422036760173598 -0.0033197037108312561 0.0094232433560322969 0.032773960722277194 -0.034601780889729844 -0.096459204712412455 0.11260052895735446
leaf_weight=7.1714668236672861 13.136924616992475 9.4780924841761571 4.318413741886614 1.9400348067283619 3.3395530879497546 3.552081085741519 3.8372815102338782 4.3890750594437113 1.4220068007707585 21.469831679016352 2.6635861620306951 4.8956187926232815 1.9750374928116796 7.4351938292384139 4.9247534871101371 10.059330035001038 3.2395282313227654 2.2502390295267105 1.710956074297427 11.37469809502363 4.1662064716219902 2.6394713744521141 2.0939158573746672 3.9545427709817877 3.2911350466310978 35.661011930555105 52.692180618643761 12.236521087586878 4.3451701626181594 5.5664577931165686
leaf_count=100 197 74 26 16 44 21 20 36 9 361 18 64 24 39 29 122 27 30 18 57 26 32 29 22 26 194 251 56 23 27
internal_value=0 0.0125115 0.00797848 -0.0540468 0.00372638 0.0080846 0.0107627 0.00812955 -0.060624 -0.0655676 -0.0392561 0.00462214 0.0577942 0.0143172 0.0173338 -0.0346982 0.0100403 -0.0391577 -0.0682583 0.0203443 0.098703 0.0109102 -0.0743271 0.0158461 -0.0673242 0.0134796 0.0167167 0.0273822 -0.00207691 0.0404012
internal_weight=0 198.994 189.516 52.2364 181.031 170.569 167.016 163.179 50.2964 48.8744 27.4046 12.1737 7.2781 142.58 138.191 20.5996 8.82932 5.58979 11.7703 133.266 8.48462 5.30306 15.2308 121.891 10.4626 117.937 110.501 70.4952 40.0062 58.2586
internal_count=2018 1268 1194 750 1142 1016 995 975 734 725 364 138 74 734 698 241 101 74 140 669 52 50 226 612 126 590 551 334 217 278
is_linear=0
shrinkage=0.1


Tree=18
num_leaves=31
num_cat=0
split_feature=5 10 11 10 4 11 4 0 0 5 4 4 6 6 1 12 2 11 6 0 6 12 6 2 0 1 2 0 12 2
split_gain=15.721 7.26618 6.18685 5.13337 4.78917 4.75451 4.25632 4.19337 3.72584 3.57522 3.14675 2.97263 2.83625 2.7585 3.7885 3.23925 2.63405 2.40656 2.27974 2.73071 1.86138 1.84314 1.72126 2.53227 1.63956 4.68861 1.83471 2.28882 4.4464 1.98316
threshold=3.5000000000000004 92.500000000000014 45.000000000000007 74.000000000000014 6.5000000000000009 1.0000000180025095e-35 14.500000000000002 15.500000000000002 9.5000000000000018 1.0000000180025095e-35 10.500000000000002 8.5000000000000018 13.500000000000002 3.5000000000000004 3.5000000000000004 42.500000000000007 68990.000000000015 52.500000000000007 3.5000000000000004 36.500000000000007 11.500000000000002 47.500000000000007 6.5000000000000009 171978.00000000003 42.500000000000007 3.5000000000000004 105055.50000000001 18.500000000000004 44.500000000000007 62275.000000000007
decision_type=2 2 2 2 2 2 2 2 2 2 2 2 2 2 2 2 2 2 2 2 2 2 2 2 2 2 2 2 2 2
left_child=1 2 4 7 21 6 8 16 -6 11 18 -10 20 15 -15 -13 -2 -4 19 -9 24 -1 -12 -24 26 -26 27 -11 29 -29
right_child=3 -3 17 -5 5 -7 -8 10 9 12 22 13 -14 14 -16 -17 -18 -19 -20 -21 -22 -23 23 -25 25 -27 -28 28 -30 -31
leaf_value=-0.094613572747365052 0.016496668258661331 0.10003976341607078 0.14663446438446279 0.093570464336470857 -0.066177070392202622 -0.10843437660580918 0.116541427220428 -0.063064139748632661 -0.089447876103349588 -0.063778356629500002 -0.036326028752683856 -0.020622379334958904 -0.059466876271384833 -0.0972982858407902 0.050204198617539608 0.12732146310835785 -0.094800203737290062 0.038284642943459193 -0.093595137572466874 0.11876737643441482 0.057761677050176319 -0.0029942452283490857 -0.017061223871053129 0.11388499990913588 -0.082659353570185556 0.0593672960881148 0.024960612396683249 0.012115069605557688 0.066190556684324234 -0.086894922289450394
leaf_weight=6.6246878989040834 2.3306854218244579 8.82919132709503 4.0767026990652067 2.318775847554206 6.6190451234579077 3.4780057109892359 3.6470249593257895 2.2377969250082992 5.8343051001429584 5.4266448691487339 3.7560004293918592 3.2485438808798772 4.7873547449707976 4.8353769220411777 2.7212234921753407 2.7184031754732132 24.268268778920174 4.1233086436986923 7.3392700478434563 1.3090607821941374 11.264778032898901 3.2843514233827591 2.8732452318072319 3.038603063672781 5.6642547249793989 3.9419851452112198 89.438653483986855 3.8394582420587522 7.6544313281774512 4.2760924771428108
leaf_count=100 38 74 26 19 58 21 20 36 102 34 31 36 29 54 22 17 445 26 122 17 56 26 18 24 33 22 435 18 36 23
internal_value=0 0.0113852 0.00721063 -0.0516902 0.00332608 0.00727883 0.00970444 -0.0588335 0.00730328 0.010428 -0.0249091 -0.0297866 0.0161397 -0.00404766 -0.0441809 0.0467774 -0.085048 0.0921516 -0.0617824 0.00404555 0.0188921 -0.0642463 0.0166107 0.0502432 0.0152506 -0.0243778 0.0186915 -0.00776099 0.0115153 -0.0400534
internal_weight=0 196.334 187.505 49.4717 179.305 169.396 165.918 47.1529 162.271 155.652 20.554 19.3579 136.294 13.5235 7.5566 5.96695 26.599 8.20001 10.8861 3.54686 131.506 9.90904 9.66785 5.91185 120.242 9.60624 110.635 21.1966 15.77 8.11555
internal_count=2018 1268 1194 750 1142 1016 995 731 975 917 248 231 686 129 76 53 483 52 175 53 657 126 73 42 601 55 546 111 77 41
is_linear=0
shrinkage=0.1


Tree=19
num_leaves=31
num_cat=0
split_feature=0 10 11 7 4 0 11 4 7 8 12 0 12 4 12 0 12 12 3 6 2 6 1 2 0 2 2 2 0 6
split_gain=13.7238 9.34867 6.80878 6.85954 4.62996 3.96046 3.17964 3.00776 2.55828 2.38308 2.32953 2.05117 2.0648 1.93904 3.23611 1.91005 3.30129 2.51935 2.13406 2.12249 1.64054 1.67017 1.62115 1.51264 1.6004 1.5747 1.50552 1.98388 1.72759 1.46297
threshold=8.5000000000000018 68.500000000000014 49.500000000000007 1.0000000180025095e-35 8.5000000000000018 29.500000000000004 55.500000000000007 9.5000000000000018 4.5000000000000009 2.5000000000000004 47.500000000000007 25.500000000000004 38.500000000000007 6.5000000000000009 31.500000000000004 18.500000000000004 44.500000000000007 42.500000000000007 11.500000000000002 10.500000000000002 260497.00000000003 6.5000000000000009 4.5000000000000009 105055.50000000001 24.500000000000004 198246.50000000003 149968.50000000003 230412.50000000003 35.500000000000007 8.5000000000000018
decision_type=2 2 2 2 2 2 2 2 2 2 2 2 2 2 2 2 2 2 2 2 2 2 2 2 2 2 2 2 2 2
left_child=10 2 3 7 29 8 -4 13 9 -6 -1 12 -11 -2 -15 16 -9 18 19 -17 23 -22 -14 -16 -25 -26 28 -28 -7 -5
right_child=1 -3 6 4 5 26 -8 15 -10 11 -12 -13 22 14 20 17 -18 -19 -20 -21 21 -23 -24 24 25 -27 27 -29 -30 -31
leaf_value=-0.091813845415672501 -0.054472341470668741 0.085115584984789286 0.14267053815983918 -0.082646052321640615 -0.11545870058052586 0.049210699443113501 0.022101388991481525 0.035124720636447365 0.034122683304957512 -0.10940530532375217 0.015944118828052013 -0.10251317726602055 0.011348340494559621 -0.089056987226086015 -0.015959371922922256 0.054205380170686747 -0.073894502210971949 0.063301398761257885 -0.049225510151207269 -0.026198344690966532 -0.054489512274289144 0.021561138003921808 -0.086992134588729647 0.045865416190361191 -0.0044436973455274495 0.054285149689027694 0.12987352686422679 0.020549925344464072 -0.057052552318320841 -0.024778589043885982
leaf_weight=18.089300841093067 6.5678018592298022 13.979434326291083 4.7122880443930608 16.253041710704569 3.9989585280418458 3.2797516658902151 4.0820152312517166 7.1460763216018659 4.9258173257112494 2.0627910085022512 2.2564234100282183 3.3000106401741496 12.10874344781041 3.6960307955741873 13.232807539403437 11.100327409803869 4.5438132286071777 20.477309189736843 4.2765055745840064 4.6620746552944174 7.769380643963812 4.5959191918373108 1.9456881918013085 17.811161816120148 22.358356162905697 5.7370674461126319 2.9344262182712555 3.8218269981443882 2.8676449209451675 5.974921476095914
leaf_count=331 85 114 32 284 58 22 25 35 23 32 29 35 144 32 69 51 21 97 20 21 39 21 20 84 101 26 24 27 19 97
internal_value=0 0.00597687 0.000612724 -0.00322187 -0.0303011 -0.0104743 0.0867065 0.00960752 -0.0313828 -0.0451625 -0.079863 -0.0306851 -0.0159783 -0.00236478 0.00218614 0.0283593 -0.00725061 0.0386336 0.0134262 0.0304242 0.00690243 -0.0262231 -0.00226586 0.0138286 0.0224151 0.0075487 0.03545 0.0680322 -0.000359109 -0.0670912
internal_weight=0 220.222 206.243 197.448 63.4736 41.2457 8.7943 133.975 28.342 23.4162 20.3457 19.4172 16.1172 81.7685 75.2007 52.2061 11.6899 40.5162 20.0389 15.7624 71.5047 12.3653 14.0544 59.1394 45.9066 28.0954 12.9036 6.75625 6.1474 22.228
internal_count=2018 1658 1544 1487 785 404 57 702 312 289 360 231 196 457 372 245 56 189 92 72 340 60 164 280 211 127 92 51 41 381
is_linear=0
shrinkage=0.1


Tree=20
num_leaves=31
num_cat=0
split_feature=0 10 5 11 11 4 5 11 2 7 1 13 6 6 2 0 0 1 1 9 0 0 2 2 0 2 6 0 11 6
split_gain=11.9618 7.9168 6.0847 4.25147 3.90573 3.77443 4.09377 3.04553 3.15192 2.97851 2.70186 2.75964 2.46024 7.90878 2.82504 2.71841 2.81906 2.59643 2.43963 2.20859 2.18856 2.39321 3.60922 2.36393 3.2834 2.85297 3.60848 2.917 2.18251 2.1658
threshold=6.5000000000000009 92.500000000000014 3.5000000000000004 45.000000000000007 1.0000000180025095e-35 8.5000000000000018 1.0000000180025095e-35 55.500000000000007 68990.000000000015 1.5000000000000002 1.5000000000000002 37.500000000000007 3.5000000000000004 8.5000000000000018 35527.000000000007 21.500000000000004 14.500000000000002 4.5000000000000009 1.5000000000000002 1.0000000180025095e-35 47.500000000000007 15.500000000000002 210174.00000000003 224299.50000000003 28.500000000000004 117646.00000000001 3.5000000000000004 22.500000000000004 52.500000000000007 5.5000000000000009
decision_type=2 2 2 2 2 2 2 2 2 2 2 2 2 2 2 2 2 2 2 2 2 2 2 2 2 2 2 2 2 2
left_child=-1 2 3 4 5 6 -2 8 19 -10 -8 -12 15 -14 -15 16 -7 18 -17 -4 21 22 -13 25 -25 26 -23 -27 -5 -29
right_child=1 -3 7 28 -6 12 10 -9 9 -11 11 20 13 14 -16 17 -18 -19 -20 -21 -22 23 -24 24 -26 27 -28 29 -30 -31
leaf_value=-0.097887149766658146 -0.089537476772358571 0.093495179134485962 -0.040198008852407152 0.13694012237926731 -0.10032183166118847 0.067744560207275886 0.071925048977540429 0.10748876339921257 -0.031785445533018486 -0.099337341305585969 -0.094408316871164022 -0.10376854913453995 -0.073050279340249269 -0.079774894289574697 0.02738694767381112 -0.0045431965798243849 -0.030069638761284191 -0.014810768321474333 0.081823242048344902 0.1038189437262762 -0.083748395357745253 0.045272275825412239 0.034590412799366088 -0.10304936487978254 0.017389994123619464 0.095004947774727136 -0.089302863174757122 0.051727284594562065 0.029609543409242302 -0.019513715383294529
leaf_weight=12.146010011434553 6.2259081304073325 9.4681918025016767 2.0577730350196388 3.6009289249777785 3.5126922838389865 4.2731510810554019 4.3099449165165415 1.3539890646934498 16.769578792154793 10.686722308397291 3.6422133967280379 4.8110502958297721 10.624584063887594 2.5933621600270262 47.857760727405548 3.9125442653894487 9.4902436695992929 4.5458194315433493 19.935600645840168 2.2068380117416382 3.2603383138775817 3.6449796259403211 3.1003731898963451 3.9522787332534772 5.2974749393761158 6.9767631925642517 4.3949131555855274 9.0950435213744658 3.9980903789401054 8.0393747016787511
leaf_count=258 126 91 21 26 24 29 25 8 239 201 43 37 71 14 259 23 49 22 106 30 26 20 24 26 33 37 31 48 26 45
internal_value=0 0.00401069 5.46996e-05 0.00725806 0.00405143 0.00620829 -0.0123229 -0.039386 -0.0456552 -0.0580784 -0.0043802 -0.0102305 0.0181906 0.00536488 0.0218785 0.0367719 0.000298948 0.0544515 0.0676539 0.0343274 -0.00439865 0.000847655 -0.0495477 0.0104779 -0.0340719 0.0232947 -0.0282916 0.0404962 0.08047 0.0183014
internal_weight=0 223.639 214.17 181.095 173.496 169.984 66.7507 33.0749 31.7209 27.4563 60.5247 56.2148 103.233 61.0757 50.4511 42.1574 13.7634 28.394 23.8481 4.26461 52.5726 49.3123 7.91142 41.4008 9.24975 32.1511 8.03989 24.1112 7.59902 17.1344
internal_count=2018 1760 1669 1170 1118 1094 521 499 491 440 395 370 573 344 273 229 78 151 129 51 327 301 61 240 59 181 51 130 52 93
is_linear=0
shrinkage=0.1


Tree=21
num_leaves=31
num_cat=0
split_feature=0 10 11 4 9 4 8 0 7 11 8 2 7 0 0 12 2 4 0 2 1 2 1 7 12 6 12 12 6 2
split_gain=10.6418 7.30416 4.90771 5.50529 4.21097 3.68867 3.35165 3.34123 3.43851 2.99628 2.8281 2.77075 3.67237 3.0845 2.77447 2.61013 2.29806 2.14742 3.08754 2.35767 2.10022 2.47644 1.97865 1.84706 1.83959 1.77809 1.52381 2.66421 2.60972 1.37419
threshold=7.5000000000000009 68.500000000000014 49.500000000000007 6.5000000000000009 1.0000000180025095e-35 14.500000000000002 1.5000000000000002 42.500000000000007 4.5000000000000009 55.500000000000007 2.5000000000000004 414611.50000000006 1.5000000000000002 42.500000000000007 46.500000000000007 42.500000000000007 226303.50000000003 10.500000000000002 19.500000000000004 245059.50000000003 4.5000000000000009 165629.50000000003 1.5000000000000002 3.5000000000000004 47.500000000000007 11.500000000000002 51.500000000000007 42.500000000000007 6.5000000000000009 123049.50000000001
decision_type=2 2 2 2 2 2 2 2 2 2 2 2 2 2 2 2 2 2 2 2 2 2 2 2 2 2 2 2 2 2
left_child=24 2 3 -2 7 6 -6 8 15 -4 16 12 13 17 -15 25 -8 18 19 29 22 -22 -19 -14 -1 -5 27 28 -24 -12
right_child=1 -3 9 4 5 -7 10 -9 -10 -11 11 -13 23 14 -16 -17 -18 20 -20 -21 21 -23 26 -25 -26 -27 -28 -29 -30 -31
leaf_value=-0.092851333575870235 -0.073439685634774071 0.077954113568116684 0.13492302081240112 -0.095031587424471292 0.080583988449491065 0.11429915707887808 0.013475580353440235 0.059721862512196237 0.0096116317029060656 0.01447713178461082 -0.053603251983402295 0.081704264302300184 -0.11628348895356776 -0.1142454329568369 -0.0032137292581994889 -0.0039646359426689388 -0.095374043652432114 -0.017504313563704309 0.015039932527781956 -0.09229777052213832 -0.076795518963838807 0.032882531904499433 -0.028604020704885665 -0.0034207200440479878 0.026021094052820673 0.015848815717031797 0.0057315621580808253 0.098824831647162728 0.069325718487760687 0.0069060958838226133
leaf_weight=13.896122116595505 10.583582837134598 12.739832215011118 4.1781909018754941 14.403815276920801 5.7344779074192038 3.1921574622392646 3.1186597831547243 3.6387826912105075 9.1783141195774096 4.0843665227293968 5.556694280356175 4.6794456280767909 3.7258783578872672 3.7750388793647272 5.5728639215230942 5.4843452833592883 5.1301650069653988 4.8631744012236586 49.706872802227736 4.7596200071275225 3.6388036049902421 4.7408603653311729 4.5900155194103771 2.3739225678145885 1.4364085793495167 1.6076730452477921 5.7464746236801139 10.878577120602129 6.6837560795247555 11.5639864616096
leaf_count=294 171 114 32 248 42 19 22 39 56 25 47 30 61 22 35 49 37 23 264 34 19 23 35 34 22 29 27 55 36 74
internal_value=0 0.00450302 -0.000102283 -0.00330197 0.000724774 0.0079527 0.00564083 -0.030879 -0.0416267 0.0753839 0.00259515 0.00612277 0.00336345 0.0071471 -0.0480526 -0.0635045 -0.0542209 0.0117245 0.00126127 -0.0300406 0.0299306 -0.0147443 0.0413573 -0.0723595 -0.0817149 -0.0838984 0.0516177 0.0635209 0.0294545 -0.0127328
internal_weight=0 215.93 203.191 194.928 184.344 150.031 146.839 34.3129 30.6741 8.26256 141.105 132.856 128.177 122.077 9.3479 21.4958 8.24882 112.729 71.5872 21.8803 41.1417 8.37966 32.762 6.0998 15.3325 16.0115 27.8988 22.1523 11.2738 17.1207
internal_count=2018 1702 1588 1531 1360 939 920 421 382 57 878 819 789 694 57 326 59 637 419 155 218 42 176 95 316 277 153 126 71 121
is_linear=0
shrinkage=0.1


Tree=22
num_leaves=31
num_cat=0
split_feature=0 10 4 11 5 4 5 2 7 11 4 1 0 0 6 2 0 12 7 2 2 6 1 13 2 0 0 1 6 0
split_gain=9.61537 6.20669 4.51501 4.20945 4.60084 3.11754 2.80969 2.68605 2.77458 2.48455 2.2934 2.16792 2.29163 3.12889 2.03155 2.05925 2.90493 1.95589 2.96536 1.82235 2.52014 1.7758 1.62243 2.20795 1.80326 2.34073 1.67408 1.93162 2.49543 2.66859
threshold=6.5000000000000009 92.500000000000014 3.5000000000000004 49.500000000000007 3.5000000000000004 14.500000000000002 1.0000000180025095e-35 68990.000000000015 1.5000000000000002 55.500000000000007 8.5000000000000018 5.5000000000000009 15.500000000000002 20.500000000000004 13.500000000000002 349492.50000000006 22.500000000000004 51.500000000000007 3.5000000000000004 167931.00000000003 234255.50000000003 8.5000000000000018 4.5000000000000009 37.500000000000007 171978.00000000003 29.500000000000004 10.500000000000002 1.5000000000000002 2.5000000000000004 22.500000000000004
decision_type=2 2 2 2 2 2 2 2 2 2 2 2 2 2 2 2 2 2 2 2 2 2 2 2 2 2 2 2 2 2
left_child=-1 2 -2 4 5 6 10 21 11 -5 -4 12 -9 -14 15 22 -17 18 19 -12 -21 -6 23 -8 25 -24 -25 -28 29 -29
right_child=1 -3 3 9 7 -7 14 8 -10 -11 17 -13 13 -15 -16 16 -18 -19 -20 20 -22 -23 24 26 -26 -27 27 28 -30 -31
leaf_value=-0.095465040709401525 -0.10643194868336436 0.08776649494836461 -0.086889627994293506 0.13027396268130881 -0.025914217602979656 0.1040262669629408 -0.049309528488813967 -0.089954741765271698 -0.096140309714147013 0.0177356957619146 -0.046342204332743192 0.07411924469849257 0.067417047935396365 -0.057900755755587098 -0.05614787846000692 -0.0011022574415282163 0.099343969417094891 0.07765757316269617 -0.10032485225697121 0.12020850035677676 -0.028949044801414411 0.10493330288109821 0.0044690483549455198 0.072193707530993564 0.016192718793654536 -0.078178564562777275 -0.026369948886659202 -0.057625262860457861 0.028371810351516813 0.014226183557180198
leaf_weight=10.32214007899165 3.9159752614796153 8.3680800721049291 5.4986302964389351 3.9085834845900527 2.1876208521425751 3.1446458324789992 5.5444466657936564 5.4327732697129258 8.6835716180503351 3.938603088259697 3.5331320166587812 1.9126848094165332 3.3887883238494378 4.8348976448178291 4.7340418025851241 5.5568201057612878 5.9750416502356529 2.1267137117683879 3.7257724329829207 2.3866484388709068 2.1560646779835224 1.9723220169544218 6.3466603122651595 4.9541083797812453 9.6533977538347226 7.4486530013382435 11.235429197549818 7.8458581976592567 60.949017960578203 15.150770746171473
leaf_count=258 81 91 124 32 34 20 36 107 189 24 33 20 38 64 31 36 29 15 47 23 22 14 36 32 55 41 55 45 308 78
internal_value=0 0.00332462 -7.0265e-05 0.00196919 -0.000900713 0.0053946 0.00351279 -0.0381164 -0.0508504 0.0737896 -0.0322057 -0.0255903 -0.0395553 -0.00626022 0.00828535 0.0104539 0.0509423 -0.0106176 -0.0265253 0.00752197 0.0494153 0.0361235 0.00683807 0.0121181 -0.0169581 -0.0401558 0.0155193 0.0125695 0.0177812 -0.0102877
internal_weight=0 216.51 208.142 204.226 196.379 167.966 164.821 28.4127 24.2527 7.84719 19.427 15.5691 13.6565 8.22369 145.394 140.66 11.5319 13.9283 11.8016 8.07585 4.54271 4.15994 129.128 105.68 23.4487 13.7953 100.135 95.1811 83.9456 22.9966
internal_count=2018 1760 1669 1588 1532 1066 1046 466 418 56 264 229 209 102 782 751 65 140 125 78 45 48 686 554 132 77 518 486 431 123
is_linear=0
shrinkage=0.1


Tree=23
num_leaves=31
num_cat=0
split_feature=0 10 4 11 5 7 1 6 2 2 2 11 4 11 6 6 6 7 3 2 2 1 0 0 2 2 2 2 0 0
split_gain=8.54829 5.42422 4.04909 3.55727 3.8994 2.35483 2.60623 2.36667 3.3521 3.17926 2.68256 2.28502 2.18166 2.19262 1.91357 3.92271 3.20551 3.52989 2.79443 2.57154 4.54842 2.20013 2.56267 3.98965 2.16805 6.04715 2.35097 3.32945 3.47208 4.68534
threshold=6.5000000000000009 92.500000000000014 3.5000000000000004 49.500000000000007 3.5000000000000004 2.5000000000000004 1.5000000000000002 8.5000000000000018 337550.50000000006 190992.00000000003 149968.50000000003 55.500000000000007 13.500000000000002 1.0000000180025095e-35 3.5000000000000004 2.5000000000000004 8.5000000000000018 1.0000000180025095e-35 14.500000000000002 117646.00000000001 201715.50000000003 1.5000000000000002 28.500000000000004 32.500000000000007 335178.00000000006 245708.00000000003 153980.50000000003 134421.00000000003 33.500000000000007 25.500000000000004
decision_type=2 2 2 2 2 2 2 2 2 2 2 2 2 2 2 2 2 2 2 2 2 2 2 2 2 2 2 2 2 2
left_child=-1 2 -2 4 12 7 -7 8 -6 10 -9 -5 13 14 15 21 17 18 19 -16 -21 -4 -23 -24 25 26 27 28 29 -18
right_child=1 -3 3 11 5 6 -8 9 -10 -11 -12 -13 -14 -15 16 -17 24 -19 -20 20 -22 22 23 -25 -26 -27 -28 -29 -30 -31
leaf_value=-0.09413322412507874 -0.1057977662824074 0.08463095773351248 0.08095829679742475 0.12582821330717267 -0.076175722650273864 0.047939073519156959 -0.10728707613115383 0.012365243466305333 0.097992297532489392 -0.060237382295810875 0.14851398572561977 0.015993214821706837 0.059817358104079593 -0.075193466592931954 -0.060674101441304175 0.045797794590878835 0.02200512656400333 -0.10353728255649107 -0.09709477565923455 0.07137349661366596 -0.055792925273796881 -0.027908935800317548 0.10437663863617166 -0.013435971956226644 0.063167660404144454 -0.078127107913249616 0.037872662413052358 -0.075173750052501084 0.078362205945072025 -0.10956408051261948
leaf_weight=9.4653699584305269 3.5634765289723864 7.8380268514156333 2.901443123817443 3.6551962681114665 8.240780416876083 1.2931435555219639 6.613190371543169 4.2809893414378148 1.2761744894087304 3.4721381664276123 2.1862262785434723 3.9313479065895081 6.9208933860063544 3.5543990954756728 4.790845490992079 27.712725315243006 9.6741220392286831 5.8123360499739638 3.4651125967502585 7.8413167297840101 4.3858335763216019 25.134820032864809 4.3859488293528548 8.3406613543629629 6.1720450222492209 8.2812531255185586 22.529437009245157 5.5276848450303069 5.6962591707706443 3.7581079006195059
leaf_count=258 81 91 20 32 151 26 158 38 18 49 26 24 42 23 28 146 60 90 21 40 29 178 25 53 37 47 136 36 33 22
internal_value=0 0.00298529 -0.000130326 0.00173528 -0.000888363 -0.0358789 -0.0818986 -0.0171782 -0.0528207 0.0169496 0.05839 0.0689117 0.00484872 0.00247049 0.00423539 0.0167697 -0.00552526 -0.0347571 -0.0152399 0.00142693 0.0257594 -0.00296506 -0.00939638 0.0271656 0.0069452 0.000689072 0.0145216 -0.00681528 0.0129387 -0.0148057
internal_weight=0 213.236 205.398 201.834 194.248 27.3626 7.90633 19.4563 9.51695 9.93935 6.46722 7.58654 166.885 159.964 156.41 68.4756 87.9344 26.2954 20.4831 17.018 12.2272 40.7629 37.8614 12.7266 61.6389 55.4669 47.1856 24.6562 19.1285 13.4322
internal_count=2018 1760 1669 1588 1532 466 184 282 169 113 64 56 1066 1024 1001 422 579 208 118 97 69 276 256 78 371 334 287 151 115 82
is_linear=0
shrinkage=0.1


Tree=24
num_leaves=31
num_cat=0
split_feature=0 10 4 11 5 2 7 11 5 4 9 2 2 2 2 2 2 6 4 8 13 2 8 2 2 0 0 2 1 0
split_gain=7.5959 4.73213 3.6337 3.00348 3.29788 2.36187 2.46148 2.09604 1.94588 2.3045 1.87376 1.75011 2.93337 5.03484 1.62765 2.55099 3.69346 1.4349 1.8177 2.11994 3.3222 1.70645 4.20202 2.12491 3.49513 2.64941 2.1876 2.42062 1.91434 1.89315
threshold=6.5000000000000009 92.500000000000014 3.5000000000000004 49.500000000000007 3.5000000000000004 68990.000000000015 1.5000000000000002 55.500000000000007 1.0000000180025095e-35 8.5000000000000018 1.0000000180025095e-35 337550.50000000006 190406.00000000003 171978.00000000003 94222.500000000015 209133.50000000003 167931.00000000003 13.500000000000002 12.500000000000002 1.5000000000000002 37.500000000000007 199899.50000000003 3.5000000000000004 349492.50000000006 276941.00000000006 18.500000000000004 33.500000000000007 245059.50000000003 4.5000000000000009 24.500000000000004
decision_type=2 2 2 2 2 2 2 2 2 2 2 2 2 2 2 2 2 2 2 2 2 2 2 2 2 2 2 2 2 2
left_child=-1 2 -2 4 8 10 11 -5 9 -4 -6 12 13 -7 -11 16 -16 18 19 -10 -21 28 -23 24 26 -25 27 -24 -22 -30
right_child=1 -3 3 7 5 6 -8 -9 17 14 -12 -13 -14 -15 15 -17 -18 -19 -20 20 21 22 23 25 -26 -27 -28 -29 29 -31
leaf_value=-0.092772466273389712 -0.10522819583991594 0.081471786289563766 -0.084384713968382763 0.12152822088076408 -0.03666866151153176 -0.05097225444403615 -0.093203919825114362 0.014419577920308608 0.068965744755841482 -0.08652341212294011 0.099101894395131521 0.062505507455531267 -0.094357286134910345 0.12544610315350682 -0.011592844637638581 -0.047558095347709606 0.13468103787515062 -0.045272350971620468 0.045082856588328495 -0.07780163661966244 0.0051603458649708061 -0.063776311644121342 0.085795036220672194 0.010828220529017009 -0.02672875558086877 0.13288754637810393 -0.016966990263246322 0.000454099511180015 0.012308523776409099 -0.067631725478191934
leaf_weight=8.6839452404528839 3.2409290038049212 7.3531660586595526 4.954883640632036 3.4184053577482691 1.892613317817452 5.2982809729874152 7.4831610172986975 3.9247127026319504 5.2001125738024703 2.0892273634672156 2.1958377361297607 2.0659125186502925 5.2274051867425442 2.3287148214876652 4.3308684565126878 4.7734945826232433 2.8703057244420052 4.8421377614140502 13.434920646250246 4.7968971207737914 62.647816028445959 4.9451975598931304 12.040997270494708 3.0262226313352576 9.7758486829698068 4.3124508187174797 4.412054367363452 4.590799704194068 4.7516496405005437 7.8676540330052376
leaf_count=258 81 91 124 32 20 79 189 24 32 23 28 28 95 27 43 49 27 32 77 35 323 26 60 19 54 22 26 23 27 44
internal_value=0 0.0026666 -0.000191589 0.00151477 -0.00088382 -0.0336441 -0.0463995 0.0642813 0.00435501 -0.0257395 0.0362514 -0.0229251 -0.0366552 0.00289273 -0.00507802 0.00913181 0.0467103 0.00825805 0.010086 0.00642319 0.00378266 0.00708881 0.0229549 0.034195 0.0226799 0.0825544 0.0456325 0.0622388 -0.00199732 -0.0375312
internal_weight=0 210.093 202.74 199.499 192.155 26.4919 22.4035 7.34312 165.664 19.0188 4.08845 14.9203 12.8544 7.627 14.0639 11.9747 7.20117 146.645 141.803 128.368 123.168 118.371 43.1036 38.1584 30.8197 7.33867 21.0439 16.6318 75.2671 12.6193
internal_count=2018 1760 1669 1588 1532 466 418 56 1066 266 48 229 201 106 142 119 70 800 768 691 659 624 230 204 163 41 109 83 394 71
is_linear=0
shrinkage=0.1


Tree=25
num_leaves=31
num_cat=0
split_feature=0 10 4 5 11 5 4 11 0 1 0 13 12 0 0 10 12 1 11 4 6 1 1 4 2 4 12 2 1 12
split_gain=6.74766 4.18519 3.28302 2.56849 3.17248 2.30946 2.52773 2.39323 2.18345 2.4456 2.27007 1.99278 1.74382 3.12445 2.11787 1.64937 1.64482 2.90004 1.45983 1.31111 1.35152 1.3623 1.90874 1.65976 1.64849 1.33498 5.08051 3.17723 2.14363 2.80359
threshold=6.5000000000000009 95.500000000000014 3.5000000000000004 3.5000000000000004 72.500000000000014 1.0000000180025095e-35 8.5000000000000018 45.000000000000007 45.500000000000007 3.5000000000000004 12.500000000000002 27.500000000000004 43.500000000000007 18.500000000000004 13.500000000000002 68.500000000000014 42.500000000000007 3.5000000000000004 52.500000000000007 13.500000000000002 13.500000000000002 5.5000000000000009 4.5000000000000009 11.500000000000002 267198.00000000006 8.5000000000000018 57.000000000000007 260497.00000000003 1.5000000000000002 49.500000000000007
decision_type=2 2 2 2 2 2 2 2 2 2 2 2 2 2 2 2 2 2 2 2 2 2 2 2 2 2 2 2 2 2
left_child=-1 2 -2 5 8 6 -4 15 9 11 -11 -5 -13 14 -14 19 17 -8 -9 20 21 22 25 24 -24 26 27 -7 -27 -30
right_child=1 -3 3 4 -6 7 16 18 -10 10 -12 12 13 -15 -16 -17 -18 -19 -20 -21 -22 -23 23 -25 -26 28 -28 -29 29 -31
leaf_value=-0.091373900289717092 -0.10471625221309924 0.089904433256395383 -0.087189453360578054 0.082605491453011035 0.13758505760222403 -0.0046412013255540041 -0.065935152031657035 0.13073455384653324 0.066494558433403142 0.1191280435109463 -0.026625941297499178 -0.08461822387553633 -0.026530431048171793 -0.12929963752146709 0.12899828365071461 0.072104613362149336 0.037189218052830174 0.071266340237722145 0.028896497839195068 0.051648935944526013 -0.049589306497031367 0.059420845431647606 -0.028433559542111572 -0.083946865824646069 0.049263280840656731 -0.027945482091321035 0.11004001071188181 -0.093767448424480787 0.035648591867655906 -0.022527403681951916
leaf_weight=7.9717996176332226 2.9461192823946467 5.3231327980756751 5.0633292701095369 0.96086366847158799 1.126334249973296 35.21719828248024 6.3684901054948551 2.5173236280679694 2.0055922679603091 1.5990187283605326 3.2210670318454504 13.197478935122492 2.2140551973134275 1.6930838748812673 1.4482569918036459 3.8836787343025199 5.6082786470651618 2.0321855433285236 3.1930637210607529 6.0406634211540213 4.5425649508833876 4.5883085727691642 11.770183674991133 3.8375632986426345 3.5556528717279425 8.7428231313824636 3.5535043179988852 4.5122770033776751 46.409878466278315 10.083588413894175
leaf_count=258 81 73 127 19 6 209 84 25 23 23 36 298 35 20 16 32 39 19 22 39 31 28 70 18 21 39 17 33 230 47
internal_value=0 0.00238105 7.38498e-05 0.00162533 -0.0267662 0.00617171 -0.0266346 0.010276 -0.0337943 -0.0420601 0.0217266 -0.057816 -0.0650885 -0.0169609 0.0349732 0.0078043 -0.00474792 -0.0327451 0.07379 0.00605622 0.00404318 0.00588508 0.00396126 -0.0251342 -0.0104076 0.00909922 -0.00451741 -0.0147637 0.0181336 0.0252647
internal_weight=0 207.256 201.932 198.986 27.4658 171.521 19.0723 152.448 26.3394 24.3338 4.82009 19.5137 18.5529 5.3554 3.66231 146.738 14.009 8.40068 5.71039 142.854 136.814 132.271 127.683 19.1634 15.3258 108.519 43.283 39.7295 65.2363 56.4935
internal_count=2018 1760 1687 1606 476 1130 269 861 470 447 59 388 369 71 51 814 142 103 47 782 743 712 684 109 91 575 259 242 316 277
is_linear=0
shrinkage=0.1


Tree=26
num_leaves=31
num_cat=0
split_feature=0 10 4 5 11 2 2 2 6 13 13 0 12 5 4 11 4 0 2 6 1 2 7 12 2 6 2 3 0 0
split_gain=5.99109 3.69942 2.94975 2.16592 2.55239 2.81443 5.16687 3.08165 2.8077 2.27957 3.45116 2.26039 1.99809 1.85717 2.00026 1.79924 1.63435 2.52944 1.42256 1.37707 3.04386 1.50271 1.31856 1.27318 1.67321 2.17695 1.26227 1.24953 1.20836 1.20673
threshold=6.5000000000000009 95.500000000000014 3.5000000000000004 2.5000000000000004 72.500000000000014 189401.00000000003 171978.00000000003 337550.50000000006 8.5000000000000018 18.500000000000004 31.500000000000004 23.500000000000004 42.500000000000007 1.0000000180025095e-35 8.5000000000000018 45.000000000000007 12.500000000000002 33.500000000000007 77848.500000000015 3.5000000000000004 4.5000000000000009 170123.50000000003 2.5000000000000004 64.500000000000014 337550.50000000006 6.5000000000000009 142420.00000000003 10.500000000000002 24.500000000000004 29.500000000000004
decision_type=2 2 2 2 2 2 2 2 2 2 2 2 2 2 2 2 2 2 2 2 2 2 2 2 2 2 2 2 2 2
left_child=-1 2 -2 9 5 6 8 -7 29 -4 -11 18 -9 14 -12 16 23 28 -10 21 22 -16 -21 24 -15 -26 -20 -8 -18 -5
right_child=1 -3 3 4 -6 7 27 12 11 10 13 -13 -14 15 19 -17 17 -19 26 20 -22 -23 -24 -25 25 -27 -28 -29 -30 -31
leaf_value=-0.089929281522189944 -0.10425577498948653 0.087672680607351727 0.077540543036917223 -0.10787494335530333 0.12284206088103844 -0.10094903030622289 0.043384889182009334 -0.048183112114043455 0.10684326583422624 -0.085715198936472739 -0.083516304861522089 -0.077047283777257891 0.12734692127903288 0.0026780512144080316 -0.031079728237807653 0.067514904088951042 0.04047362068026434 -0.0089101622034419327 -0.06708847997159284 -0.025181082989873312 0.070112945785135258 0.069699425824416447 -0.12499021325476159 -0.04476983982979086 0.0037760415861975562 0.091893146552729552 0.077963897768643931 0.16367349401092149 0.12526212325008171 -0.011211568872276444
leaf_weight=7.3232508040964595 2.6769327651709309 4.9329801127314559 4.308451246470212 4.5722067225724548 1.1348423585295666 8.0659990683197957 1.7009376473724835 1.6091995332390063 2.2728902027010918 4.1919569987803689 4.3146646693348911 1.9956279695034025 1.0862656906247137 108.46092799678445 2.4614391140639764 5.2412727028131476 3.2965259030461294 5.2512015476822853 1.3614789731800558 2.682402852922678 2.0098336599767208 3.7090747766196728 2.6129573993384838 5.0474438220262519 6.2931805998086912 5.056305006146431 1.0725479759275911 1.7541545853018758 3.4293840900063515 1.7998803704977033
leaf_count=258 81 73 34 108 6 175 22 35 17 34 116 22 13 580 26 44 21 28 25 30 18 30 34 28 37 26 19 27 24 27
internal_value=0 0.00212517 9.54488e-06 0.00142784 -0.0241043 -0.0302147 -0.00430356 -0.0700145 -0.0330442 0.00573852 0.00385288 0.0121395 0.022555 0.0062015 -0.0242575 0.0100155 0.00781305 0.0430993 0.0499528 -0.00528395 -0.0346636 0.0294983 -0.0744312 0.00442819 0.00650083 0.0430331 -0.00317151 0.104456 0.0837053 -0.0805711
internal_weight=0 204.403 199.47 196.793 28.426 27.2912 16.5297 10.7615 13.0746 168.367 164.059 6.70255 2.69547 159.867 17.7904 142.076 136.835 11.9771 4.70692 13.4757 7.30519 6.17051 5.29536 124.858 119.81 11.3495 2.43403 3.45509 6.72591 6.37209
internal_count=2018 1760 1687 1606 496 490 267 223 218 1110 1076 83 48 1042 254 788 744 73 61 138 82 56 64 671 643 63 44 49 45 135
is_linear=0
shrinkage=0.1


end of trees

feature_importances:
Column_0=175
Column_2=126
Column_4=119
Column_12=79
Column_6=65
Column_10=59
Column_7=49
Column_11=46
Column_1=35
Column_5=21
Column_3=16
Column_8=8
Column_13=7
Column_9=5

parameters:
[boosting: gbdt]
[objective: binary]
[metric: binary_error]
[tree_learner: serial]
[device_type: cpu]
[data: ]
[valid: ]
[num_iterations: 1000]
[learning_rate: 0.1]
[num_leaves: 31]
[num_threads: 0]
[deterministic: 0]
[force_col_wise: 0]
[force_row_wise: 1]
[histogram_pool_size: -1]
[max_depth: -1]
[min_data_in_leaf: 20]
[min_sum_hessian_in_leaf: 0.001]
[bagging_fraction: 1]
[pos_bagging_fraction: 1]
[neg_bagging_fraction: 1]
[bagging_freq: 0]
[bagging_seed: 3]
[feature_fraction: 1]
[feature_fraction_bynode: 1]
[feature_fraction_seed: 2]
[extra_trees: 0]
[extra_seed: 6]
[early_stopping_round: 0]
[first_metric_only: 0]
[max_delta_step: 0]
[lambda_l1: 0]
[lambda_l2: 0]
[linear_lambda: 0]
[min_gain_to_split: 0]
[drop_rate: 0.1]
[max_drop: 50]
[skip_drop: 0.5]
[xgboost_dart_mode: 0]
[uniform_drop: 0]
[drop_seed: 4]
[top_rate: 0.2]
[other_rate: 0.1]
[min_data_per_group: 100]
[max_cat_threshold: 32]
[cat_l2: 10]
[cat_smooth: 10]
[max_cat_to_onehot: 4]
[top_k: 20]
[monotone_constraints: ]
[monotone_constraints_method: basic]
[monotone_penalty: 0]
[feature_contri: ]
[forcedsplits_filename: ]
[refit_decay_rate: 0.9]
[cegb_tradeoff: 1]
[cegb_penalty_split: 0]
[cegb_penalty_feature_lazy: ]
[cegb_penalty_feature_coupled: ]
[path_smooth: 0]
[interaction_constraints: ]
[verbosity: 1]
[saved_feature_importance_type: 0]
[linear_tree: 0]
[max_bin: 255]
[max_bin_by_feature: ]
[min_data_in_bin: 3]
[bin_construct_sample_cnt: 200000]
[data_random_seed: 1]
[is_enable_sparse: 1]
[enable_bundle: 1]
[use_missing: 1]
[zero_as_missing: 0]
[feature_pre_filter: 1]
[pre_partition: 0]
[two_round: 0]
[header: 0]
[label_column: ]
[weight_column: ]
[group_column: ]
[ignore_column: ]
[categorical_feature: ]
[forcedbins_filename: ]
[precise_float_parser: 0]
[objective_seed: 5]
[num_class: 1]
[is_unbalance: 0]
[scale_pos_weight: 1]
[sigmoid: 1]
[boost_from_average: 1]
[reg_sqrt: 0]
[alpha: 0.9]
[fair_c: 1]
[poisson_max_delta_step: 0.7]
[tweedie_variance_power: 1.5]
[lambdarank_truncation_level: 30]
[lambdarank_norm: 1]
[label_gain: ]
[eval_at: ]
[multi_error_top_k: 1]
[auc_mu_weights: ]
[num_machines: 1]
[local_listen_port: 12400]
[time_out: 120]
[machine_list_filename: ]
[machines: ]
[gpu_platform_id: -1]
[gpu_device_id: -1]
[gpu_use_dp: 0]
[num_gpu: 1]

end of parameters

pandas_categorical:null
